{
    "acceptable_engine_tag": "0.4.7",
    "metadata": {
        "modelName": "E3SM2_branchnet",
        "modelAuthor": "Zhe Bai",
        "compilationDate": "2025-06-24 22:34:44.063302",
        "activationFunction": "gelu",
        "usingSkipConnections": false
    },
    "inputs_map": {
        "layer": "inputs",
        "intercept": [0.0, 0.0, 0.0, 0.0, 0.0, 0.0, 0.0, 0.0, 0.0, 0.0, 0.0, 0.0, 0.0, 0.0, 0.0, 0.0, 0.0, 0.0, 0.0, 0.0, 0.0, 0.0, 0.0, 0.0, 0.0, 0.0, 0.0, 0.0, 0.0, 0.0, 0.0, 0.0, 0.0, 0.0, 0.0, 0.0, 0.0, 0.0, 0.0],
        "slope": [1.0, 1.0, 1.0, 1.0, 1.0, 1.0, 1.0, 1.0, 1.0, 1.0, 1.0, 1.0, 1.0, 1.0, 1.0, 1.0, 1.0, 1.0, 1.0, 1.0, 1.0, 1.0, 1.0, 1.0, 1.0, 1.0, 1.0, 1.0, 1.0, 1.0, 1.0, 1.0, 1.0, 1.0, 1.0, 1.0, 1.0, 1.0, 1.0]
    },
    "outputs_map": {
        "layer": "outputs",
        "intercept": [0.0, 0.0, 0.0, 0.0, 0.0, 0.0, 0.0, 0.0, 0.0, 0.0, 0.0, 0.0, 0.0, 0.0, 0.0, 0.0, 0.0, 0.0, 0.0, 0.0, 0.0],
        "slope": [1.0, 1.0, 1.0, 1.0, 1.0, 1.0, 1.0, 1.0, 1.0, 1.0, 1.0, 1.0, 1.0, 1.0, 1.0, 1.0, 1.0, 1.0, 1.0, 1.0, 1.0]
    },
    "hidden_layers": [
        [
            {
                "weights": [0.7723238078837522, -0.4685772963726227, 0.06293458499208533, 0.07604500998857133, -0.001675679383516425, -0.03961490814695696, -0.4285759226749177, 0.023037207805097108, 0.3057154909614421, 0.14783481346034558, -0.06169613178349157, -0.09694774036889145, -0.1150005893139477, -0.10406223767413764, -0.005774410171912397, -0.1510936262438308, -0.0739462257022662, 0.0052902919616245195, -0.04601195628232674, 0.25749438507555766, 0.1236288231138075, -0.02261156824862638, -0.00461579319775548, -0.11217319045462945, 0.046497727011828145, 0.0681684295219771, -0.0742036113497323, 0.06896019279561681, -0.05467445958979579, -0.022661261175499832, 0.17389264882645952, -0.0845980787043847, -0.019434548126770024, 0.013236548463305629, -0.0510580954761262, -0.017325423071550695, -0.01832155370023024, -0.05585329743697795, 0.06648652947557748],
                "bias": -1.0666696386662313
            },
            {
                "weights": [0.18500264830779806, -0.023114482477034463, -0.07155612364764073, 0.1352347085482056, -0.0031567198223530634, 0.09039289139468637, -0.06116831162205063, -0.010647204114276825, 0.0539519036733156, 0.09827459472075133, 0.09363054296112631, 0.06891740503454567, -0.02941997412293836, -0.24060183443428643, 0.03009745431695454, 0.06399362655843373, -0.014964162527980527, 0.01307971383356127, -0.24622247542104644, -3.9322926887501706, -0.004422193041123882, -0.052951535718037214, -0.007639325006066697, 0.06966025930188711, -0.03147798914267778, 0.01729903969359427, -0.014093742020280391, 0.33121146332456625, 0.07162251627021668, -0.18976576513193233, 0.04778125253759393, 0.21753000971613776, -0.010684384619735216, 0.00879071418766154, -0.025088123347158493, 0.08286072156565827, -0.00414388240957909, 0.016597877536991573, 0.5108168062070411],
                "bias": -1.719199180368246
            },
            {
                "weights": [-0.28971094782814183, -0.22807158860247936, 0.041211557872815226, 0.08018196386253683, -0.007579419848750784, 0.0009216475742226435, -0.44555743692398686, 0.3206440920178822, 0.16212052330025656, 0.47163934193239804, 0.291820377132355, -0.26369756670659467, 0.02951610694907452, 0.16517492932931638, 0.057297570652841016, -0.0742026037086177, 0.030493736537636304, -0.027697655261140108, -0.049902145076361586, 0.20799380078706947, 0.0012750298894405093, 0.21815684977623212, 0.10702554583517772, -0.22752002492831724, 0.09559832151630895, -0.05283640864610758, 0.06771888934034447, -0.032516456378116634, 0.004660247895919801, -0.5795123772311864, -0.022361311562818672, 0.03357949015185429, 0.017560462638271556, -0.02715094019613614, 0.019791762860519167, 0.3592745309082863, -0.27465300459367764, -0.012714573305419915, -0.04316872126343855],
                "bias": 0.11270490946077803
            },
            {
                "weights": [-0.07125945876912437, 0.44072016265812797, -0.8416343215460381, -3.04822493837428, 0.8683354465354807, 0.05368872776827277, 0.009343366899866245, 0.10503585974429404, 0.07060604035012485, -0.4051068084589638, -0.03305286011138603, -0.0983400995132565, 0.02288684131192904, -0.3092681977041797, 0.004539031680849423, -0.05942251133623502, -0.037033911317448764, 0.0083250009289595, 0.07480663158869202, 0.0508420943077731, -0.006245279598715275, 0.03849077687168016, 0.004749547028771613, 0.0029665800678278904, -0.004381051438485223, 0.009150576777383615, 0.008332886033104099, -0.04923683178516215, 0.07955079227054539, -0.028462889329994183, 0.0486701084798998, 0.000758760361819839, -0.021786343887658308, -0.018741278053141325, 0.022132697301659777, -0.03610629883659525, -0.11240562371446075, -0.029401940976644742, -0.02746353112723222],
                "bias": -4.745944565824071
            },
            {
                "weights": [-0.16336917993857047, -0.07665328748882805, -0.02195635521387788, -0.010928216906125277, 0.0010638711577126427, -0.006269752504145118, -0.044911827554674696, -0.011750819302705622, 0.015883359485437825, -0.2583887873388331, -0.008315985957153625, -0.012810935718112454, -0.018400945469269896, 0.1480595480533776, 0.007957901855651211, -0.053146824341865656, 0.0010672361469380922, 0.0013640728431938834, 0.09017272459347617, 0.07687503739134353, -0.002989295289803089, 0.0035563233207125703, -0.03789763100456961, 0.03603911525765902, -0.0008576840475948488, 0.048454373136117286, -0.027895046283289718, -0.003628087899278928, 0.09537135958902575, 0.003701177526473017, -0.1419608271861236, -0.021316790439712716, -0.015924101618412186, 0.12030934194837944, 0.008565359316337538, 0.2176072883029588, -1.2414900333812395, -0.0064409799167425815, -3.5362505063295587e-06],
                "bias": -0.2471367895267796
            },
            {
                "weights": [-0.06590710417623298, 0.0465401665885945, -0.006839990611876234, -0.00869761460370393, 0.0021031089367086844, -0.03492863463174819, 0.3311111371726357, -0.03668793208246783, 0.0015279738358793872, -0.21925320177412694, -0.11049266812672141, 0.030874705612747553, -0.750992859457508, -0.0500922285449247, 0.22958733785468113, -0.07537928000433337, -0.13031975424087214, -0.008847451704482446, -0.12256007537646084, 0.04061326223596616, -0.08299776905452391, -0.015514741975142597, -0.1890791631924027, 0.023190043461192522, 0.008145664570438272, 0.18618375779576604, 0.026949839448836287, 0.29403556453944896, 0.1228220536827069, 0.22544593837235533, -0.0010471277174229784, -0.2489281645813494, -0.0798932926566809, -0.062495843151076494, 0.024613044230240452, 0.26329444194064067, 0.010326997596979248, -0.17074428975988937, 0.03290499418143259],
                "bias": -0.7797041698055895
            },
            {
                "weights": [1.6027399003814122, -0.373112638343419, 0.04707212264211052, -0.043557570172455984, -0.002126002915466202, -0.00826563322344271, 0.014696509417477722, 0.0075614875453779715, -0.05518368028545995, -0.31579414498511077, 0.018120942489113685, -0.033334022651121516, 0.06058807060751065, 0.08299859767809381, 5.103356460549332e-05, -0.0462264323702986, 0.030986991158470603, -5.213605336299785e-07, -0.035602083901031534, -0.9365729972504353, 0.020973039601823257, -0.012767232422006437, -0.07031394796136456, 0.08874018661059668, -0.001599621873774435, 0.11011923249920477, -0.09466168346233127, 0.059106992571609944, -0.03384369598391712, 0.05253001693546866, -0.01868108049588581, -0.027846678363275545, 0.02142921702654874, 0.04398031721710583, -0.05325995996567388, 0.12273227554724873, -0.0005580588638523027, 0.06628505155070362, 0.01753365710429615],
                "bias": -0.39997339122989584
            },
            {
                "weights": [0.8095903261482372, 0.09840792712854358, -0.027410583656397217, 0.0680767277541298, -0.0036451407277176026, 0.060913012839464084, -0.05400879171707904, -0.0565091660512833, -0.13329781911338903, 0.02735206418717957, -0.11931401930946683, 0.08145769295935806, 0.031676007882947645, 0.09255677913761376, -0.01993394425617218, 0.004121835768718904, 0.04872605970213629, -0.012275863144817871, 0.058013503364493145, 0.08142050977305859, -0.01025668825089791, 0.0048673064958491205, -0.026863973856789444, -0.19946925294519333, 0.02631754180499726, 0.037982135776522416, -0.04025904449845137, -0.27396200080581684, 0.00908503868735313, 0.31485049038319773, 0.017938466973712656, -0.2705764133066315, 0.03814992773373056, 0.012143859351909276, 0.006248721553606495, 0.15738634676142674, -0.0049994970415449995, -0.011764891967251036, -0.0036029015435637053],
                "bias": -1.074921308023875
            },
            {
                "weights": [0.11479447910558901, 0.1042732621290564, -0.07397264544277063, 0.1826651760053779, 0.02109204296452765, -0.04275093724624002, -0.3725053723235562, -0.05440934055001789, 0.08612152661534485, -0.2650015433924887, 0.2554196829235797, -0.04847738889127467, -0.06902676932893416, 0.027689221508762324, 0.05742141712504351, 0.13201236927062526, -0.1591365700860147, -0.0005779261048508, 0.10073052909062105, 0.017873302675503407, 0.024052189745397662, 0.04137372080085605, 0.0017515473356024354, 0.037592923880253884, 0.025112015067801894, 0.11390052786719002, -0.020111323565881696, 0.3577011288962393, -0.12850685310985738, -0.10259989035454355, -1.191784977891031, 0.11396211287710514, 0.18312794595911766, -0.004545554257606308, -0.14566161928544302, 0.6782992143049921, 0.18187037212621657, 0.2045270997865936, -0.11178594718390261],
                "bias": -0.07362974073301394
            },
            {
                "weights": [-0.026088778518124245, 0.055202754687014105, 0.01263078980909512, -0.012478939393421857, -0.00588756578563544, -0.25994243143494006, -0.4817135658194476, -0.36690113342937886, 0.0531911179985733, -0.7260130709775292, -0.03975293949747785, 0.13080995132824685, -0.02925541485639102, -0.9218089388829853, -0.04983568987434081, -0.009471066241409889, -0.11167306204802695, 0.00426739712529716, -0.10087306054156242, 0.45466235963445084, 0.11289797273368386, 0.14465421680994045, 0.023411126438999605, 0.09206263263867714, -0.04341702385775221, 0.015202315573927486, 0.09522276437031843, -0.7594111498554083, -0.23118350283479547, -0.1007033934588735, -0.015381029124887384, 0.019327636426945613, 0.27638972216646956, -0.07123629734351847, 0.008885004719291403, -0.37057587506759504, -0.06374202861214456, 0.01645684152512883, 0.0712028351595211],
                "bias": -0.036107600589215236
            },
            {
                "weights": [1.1271622295123993, 0.18097481533337054, 0.007559608342449897, -0.06671878455991091, -0.009973643627871611, 0.09677696944988612, -0.2306319290147653, -0.07527851778170741, 0.05179393894828081, -0.2955891158909211, 0.0006909219083318567, 0.03913248277206491, -0.05949572014933514, -0.30805034938037323, -0.03653170067746136, 0.027171865060441128, 0.033741135335301146, 0.014129450449601516, 0.05683463287156427, -0.04114967182541017, -0.13081341671978783, -0.03167964653442332, -0.04350247641664014, -0.03735512890195117, 0.14015692699792937, 0.09430116986065357, -0.08974926301511055, -0.29033861302568337, -0.1557244648370265, -0.2043624603263105, -0.06301294210492925, 0.25190620947691633, 0.08556580034885919, 0.12720826321894368, -0.01656842144456168, 0.06330799171904641, 0.038245652855807166, 0.027024295935328794, 0.11815543748150237],
                "bias": -1.5210323790411413
            },
            {
                "weights": [-2.4572382920982894, 0.04024878010067452, 0.006465736798524865, -0.01677891565645667, -0.0013360576210117762, 0.013687003052109821, 0.12726580409873336, -0.11786571652824468, 0.009584869581234176, -0.20832898226135171, -0.11358640323756662, 0.12579566798855493, -0.0002410751900045197, 0.1878935708985847, -0.0009931029218721863, 0.018591944028499185, -0.008680512918848202, 0.0013867634666921325, 0.014629020011260749, 0.6628716357519292, 0.014061673978766575, 0.00586479378259333, 0.032196119581111016, -0.031480339061816985, -0.002627915339724283, -0.05456844319293784, 0.034080105693941175, 0.06978539281340503, 0.03242726402024165, -0.1286185147351784, -0.027635242619489717, 0.11807405134690563, -0.011170909364821832, -0.04238808394795214, -0.001491197374934305, -0.060191770220307694, -0.012929034501277345, -0.002544487860673143, -0.0017858938991540394],
                "bias": 0.6353215205747985
            },
            {
                "weights": [1.488572484259609, -0.502862293490662, 0.06561239971522582, -0.06554372517819265, 0.0007445852347260441, 0.0894510394110314, -0.07536380602972952, -0.09491375590031764, 0.03968562757563362, 0.25064781312276396, 0.0483956027051533, 0.10982961224808686, 0.01976671333855076, 0.16499060521392106, 0.014138526083647275, 0.024250925698003998, 0.01184757495658111, 0.006024227298226339, -0.013959873678151368, -0.8022058829674273, -0.01969698999667154, -0.025646531252203047, 0.05437059479812105, -0.060291278160617, -0.011751923061927206, -0.0068984883404142605, 0.023924671490634285, -0.0007868280030000795, 0.025499285151316418, 0.11422140245282013, -0.04345577481152795, -0.08505884942219451, 0.024186403185166218, -0.003908513871613227, 1.6578156251215018e-07, 0.08225484096161584, -0.06692147431174841, -0.002209217300772123, 0.07765862993682787],
                "bias": -0.577383772196925
            },
            {
                "weights": [-0.0613075260597684, 0.04348265640887172, -0.013698418547259367, 0.04678459548438564, 0.0014957078433428309, -0.02023069962731985, 0.04752704225514223, 0.03578547644086267, -0.02814222252126688, 0.22652808611752534, -0.0016991695307065578, -0.02074832551638099, 0.008407456025589658, -0.18571186705588053, 0.005748234211725418, 0.007167867314494083, -0.0017246380095689133, 0.01637626827845655, -0.01307535919585128, 0.05824055611178925, -0.005595621238992435, -0.13298793253838573, 0.01075098574100659, 0.03963376310581987, 0.0445352631718355, -0.01885181066328022, 0.00721863624730449, 0.009273120592771833, 0.021977788596256643, -0.10974141993415552, 0.022240137240916356, -0.7272676258746277, 0.002658650357643017, -0.011381717781608035, -0.005086367407878315, -0.01883317489215652, -0.010601855513282788, 0.0016352777808307625, 0.0723800823144681],
                "bias": 0.25690308818989877
            },
            {
                "weights": [0.06251351564677513, 0.31781322437321774, 0.0018305924423633263, -0.0011270236221058892, 0.002130555738473339, -0.005724895533898712, 0.024243630728803273, -0.025024083955204796, -0.03595576134860907, -0.08251074732734164, 0.11504829294045059, -0.1175721574738064, 0.013409361571095261, -0.12545982234556835, -0.008945723338357262, 0.01167647829082708, 0.016193478251205675, 0.009346391239736322, -0.028664252235955357, -0.02784586222174, -0.007238214548543803, -0.022915784158976864, -0.003276040121391461, -0.08313875169676882, 0.011069658207595456, -0.026969839168603436, -0.10081094816331805, 0.4360548743264003, 0.14637954780206172, -0.04920499298073399, -0.034058978723055945, 0.11093539631515532, -0.017087546032745135, 0.07584163629659645, -0.010296086165840141, -0.038258486623953356, 0.03754704175389012, 0.024231551543403947, -0.09579512092330025],
                "bias": -1.128050004216251
            },
            {
                "weights": [-0.944176169878917, -0.1111734981736599, -0.007690493773843485, -0.0235468462546902, 0.0067554253217667485, 0.0825184839319709, -0.09233371764463279, 0.09047398814219051, -0.13079608950567986, 0.23358961550274804, -0.06544881707377184, 0.008895707829109749, 0.13784385111139302, -0.0603738751213162, -0.08089062659364388, 0.10984062324997462, -0.05127089301414974, 0.012545188367178198, 0.3478907584857198, 0.18174170986849622, -0.04875603430234615, 0.004797820066911354, 0.12026136123716331, -0.1032932382546768, 0.03374573065897504, -0.15515660597439063, -0.010855387028128853, -0.19869717785129548, 0.06474247124629792, 0.10330279423165482, -0.09098415920782359, -0.18087813542535114, -0.0319809728746356, -0.1128783414518709, 0.03065542039035936, 0.1279949612207212, -0.15166223787299818, -0.056418874872329196, -0.2050622447941864],
                "bias": 1.4255421281707927
            },
            {
                "weights": [0.024365459951998288, -0.0875447106209652, -0.09751167871221224, 0.1882481081277104, 0.0008988674323458005, -0.02295267888962976, -0.0899708603688574, -0.001588859231220994, 0.012062226140969797, -0.3588770534645186, -0.09787091942670695, 0.02821849157090169, -0.018020992559495963, -0.05761157009047199, -0.014161811891319239, -0.010482774245893446, -0.008278095160165288, 0.02471277029069313, -0.005173702910217575, -0.29943959031877687, 0.018560513842800674, 0.14444629855270458, -0.010345795541641034, -0.0021045499576332633, 0.02022438271043874, 0.009330305453341244, 0.024764862155315974, -0.12260461148042648, -0.023142646152046115, -0.009351313719292162, -0.015882782045048133, -0.07993845702967975, 0.03714985972818017, -0.007040948630502597, -0.004236015555234842, 0.011276403356257677, 0.008190869807003587, -0.006090472777388682, 0.0010083732951634834],
                "bias": 0.7320594578035226
            },
            {
                "weights": [1.3001586152182014, 0.09159643549884205, -0.00838555570119572, -0.03674077394098293, -0.003043975892514191, -0.031147103095311955, -0.007924482590501708, 0.007881676322063472, 0.02834436396064372, -0.019479302035784064, 0.014251872952063191, 0.10480826881245434, 0.04517317583372422, 0.39582443097408826, 0.007950451280131346, -0.006036334499359994, 0.012641596530416644, -0.012811679104408433, -0.04660196894142979, -0.2850268420745619, -0.06990118645321987, 0.14384872633980716, -0.021819124409987116, 0.017942899157206767, -0.00225940535140666, 0.08573981807450354, -0.1098910949047689, 0.007989007700153133, 0.1870970500331958, -0.4304969377871392, 0.10225477250248806, 0.2873936973764141, 0.017993883186780472, -0.10252944194012643, 0.013516163530676773, -0.013476135113013795, 0.02315574947732383, -0.04278663017833628, -0.010391617132339489],
                "bias": -1.0805485461957067
            },
            {
                "weights": [1.4521127655676327, -0.09617396021169251, 0.03473496538315254, -0.09825895682614413, 0.002731616912376486, -0.002854247132595323, -0.08743491121188707, 0.052549146003399584, 0.010922423268788423, 0.1341803580970304, 0.13800596870688453, -0.06200738831814076, -0.025760977081666525, 0.018905609670322752, 0.014444736339483804, -0.00466523145798051, 0.006652389129430026, 0.0003189573721613417, -0.08337117888379933, -0.8395403087852867, 0.02457484070439097, -0.022139828417130955, -0.023090976504876248, 0.025421046717268, -0.011314895224215736, 0.032810696465100056, 0.006769689261723397, 0.1437972508557236, 0.04198132539029237, -0.14383283228831342, -0.07490433854773569, 0.1688632437950644, -0.01579718651481906, -0.0029133072159387105, 0.017690152574186196, 0.06356385596604917, -0.023554577875815476, -0.010410189655922584, 0.02692220739581287],
                "bias": -0.5105277909191825
            },
            {
                "weights": [-1.5521111268211858, -0.09794944149743243, -0.03510730359226724, 0.129662287459719, -0.007542090947453201, -0.016632321308850492, -0.2508362964801734, 0.2061133636709259, 0.13725101754532085, -0.05953637938348024, 0.24312675580014242, -0.20906772508786742, -0.08654478022058815, 3.482376231492009e-05, 0.0034044448706986785, -0.08611363393570545, -0.004072622365700044, 0.0015024593303303204, 0.0012968104408293693, 0.742919777754752, 0.009010470360733866, 0.0029937355395041037, -0.08917388273140675, 0.12480849857181635, -0.014003316947892457, 0.09390511955342402, -0.07998199482148863, 0.00873687854261041, -0.04044474416868494, 0.20160427528078997, 0.11036036174873165, -0.17727039142408607, 0.026284238271746866, 0.0742181769112399, -0.031314575524071145, -0.029178837973788046, 0.05558805774390982, 0.016130295155805063, -0.04106927811646764],
                "bias": -0.46866140537763434
            },
            {
                "weights": [0.031034002655031197, -0.24142194997571195, -0.006408269184019208, -0.004090211598840011, -0.0006726557759617553, -0.030624477840853752, 0.11136843529844281, -0.04047624983511414, -0.000751103888956562, 0.3118801393667036, -0.6896396339472003, 0.11064685216438576, 0.03511166884562626, 0.13303210338616037, -0.026691624591296967, 0.02133884349562079, -0.01617735032637631, -0.004173527763478957, 0.009973735745260217, 0.008926648432140869, 0.023866233415125795, 0.019716359132105118, 0.022992045530947667, -0.030139492744775523, 0.02432249756123978, -0.003947099501790998, 0.04773631014837021, 0.4083358921213988, 0.011798523211475162, -0.13836456601767633, -0.07638023034220107, 0.10786158385833032, -0.01837139484982826, -0.031449160992918314, 0.001364326410490376, -0.007249999759598273, 0.03177591617653823, -0.012875889406986552, -0.0006881218872099197],
                "bias": 0.03594020929269898
            },
            {
                "weights": [-0.9200583668487153, 0.15855209996026265, 0.08588187355291364, -0.0004424620787592223, -0.00571801962355638, 0.03430278584912685, 0.15405572294219894, -0.4696620550213776, -0.19467976876491871, 0.3113073826818756, 0.037663427198022424, 0.20681737218019916, 0.1552870595563724, 0.10529241118506105, 0.04271645927053125, 0.315104556043199, 0.0162598434571885, -0.0013902428460347126, -0.12422444474919027, 0.314177550981086, -0.07417247735851948, -0.02607656710731191, 0.03448651122379011, -0.06516963803592682, 0.006805371502967968, -0.15280764957130707, 0.14216426659684078, -0.4894605756129922, -0.11679733896092775, 0.08532848791538519, 0.3645733565873782, -0.12465345044933782, 0.04183571971957624, 0.16840278124121172, -0.31765388805355216, -0.09207529065661983, -0.20286742540008346, 0.2944562665653237, 0.17223291585757491],
                "bias": -0.5235560166517064
            },
            {
                "weights": [-1.3371117068613807, 0.018315028195210675, 0.09725749213986266, -0.26504662690362263, 0.004858038896240734, -0.20429746506760071, 0.11785811759226326, -0.05885616810622093, 0.15808427893332508, -0.4491350985804892, -0.11958142807428394, 0.02559619416994186, -0.11532004317170134, 0.30268161193972637, -0.021480553105216748, -0.05812560379287524, -0.1108306582605131, 0.0025046799115741396, -0.03505197516370513, 0.1809881244911568, 0.05102249186883927, 0.03346724252485282, -0.004763027963063617, 0.007805060713441675, -0.01777016944313852, 0.02376944585498583, -0.019282890905492543, -0.00040715157948735433, -0.0733731708211265, -0.13617080568574189, 0.021407790545890426, 0.052268091846591175, -0.03865382999744502, 0.08181664319712056, -0.008184275862623845, -0.11196742843982732, -0.02837260543788904, -0.002859940690671677, -0.1067858123522655],
                "bias": 0.2970528979481584
            },
            {
                "weights": [0.05605639436444764, 0.0053218309329264345, -0.01567510568099604, 0.08273345744009843, -0.009679339438776016, 0.012460611607361853, -0.05230200579912994, -3.8338179594791058, 0.08873091420283985, -0.1709284675996165, 0.23513170724279672, -0.25452126734898034, 0.029702159274161956, -0.22677406891522073, 0.017078686937453683, 0.026675977668911215, -0.04649614661750623, -0.003401842992254896, -0.020090494525333524, -0.13905681306365406, -0.050471429322555744, 0.0255570455067396, 0.02041472787730966, -0.01100241447245215, 0.016761007923693186, -0.05918523050558337, 0.017194161704415897, -0.14431128496224602, 0.5779280360118303, 0.024823905374650502, 0.1538736377334546, -0.05334010950742587, 0.014427965202994943, -0.4119125084641721, -0.018910782962576818, 0.0101180182448946, -0.39037610071202533, 0.013349139947856624, 0.029218376676886842],
                "bias": -4.211757713034876
            },
            {
                "weights": [0.2688290955023817, -0.6660157028681747, -0.13891614765018, 0.007548018559266193, 0.01290867775355189, 0.035181739855849374, 0.043708006794029225, -0.10447276670165886, -0.18917735334282076, -0.13650404840748873, 0.030955435082590157, 0.11763406523639633, 0.1404340447238023, -0.2076023667328849, 0.0035449960511163767, 0.059153823197140486, 0.06446162384619114, -0.00045604855805428195, 0.012941469399022604, 0.5050687560987269, 0.0610388556916582, -0.00772693145834989, 0.015687801144590386, -0.060675900595363874, 0.0225462487556333, 0.051595151234379376, 0.025331635090271372, 0.16492521503628263, 0.0660679397463875, -0.05306996452097233, -0.04306646165182518, 0.015369040908980749, 0.04505999957150076, -0.1362233202131117, -0.0004306445561673966, 0.009718798979757045, 0.13577876980386844, 0.026179877035218287, 0.11970244191938553],
                "bias": -1.7577655211272958
            },
            {
                "weights": [-0.82284800271053, 0.31064827027100467, -0.08177744903347263, 0.20827919533136532, -0.005194451537354283, 0.16744522140263635, 0.11425609745188317, 0.013491735526741294, -0.021088863717485994, -0.08505007876217419, -0.037772380766873864, -0.1081474154074252, -0.03477748534711634, 0.006540282158923389, -0.058982839825079424, 0.0455370061133585, 0.03504299828052657, -0.003071633915411184, 0.19129980472855213, 0.09326956172141568, 0.07722286430858785, -0.011813732419181924, -0.05491552687212014, -0.03458613011030184, 0.01994953200812142, -0.0002571405383120791, -0.09188781459122597, -0.01825972701663765, -0.3035100883219488, -0.21276380528256214, -0.053106121185589654, 0.2015546241021494, -0.009533438317160522, 0.015183263698687154, -0.022012469890663945, -0.11824377977134831, -0.10490066389350415, 0.041769303467422, -0.04268578182168606],
                "bias": 1.0328531131067753
            },
            {
                "weights": [-1.2380467186496604, -0.1442899009609127, 0.17986080827998488, -0.4586875332380012, 0.0009562487281858092, 0.012409809525492173, 0.19614954088957473, -0.10585286135135562, -0.2613607894741896, -0.12154563810045907, -0.004140477354741506, -0.0502932088047578, 0.1863833809208433, 0.26831422793964116, -0.037132929764346206, 0.046577810735409605, 0.21456847888870634, 0.0200565373742303, 0.0464372604156776, 0.2540285439795054, -0.0076793431799328515, -0.13878971885712332, -0.03566460839803667, -0.08589357941545495, 0.10835420182036645, 0.15728650785525145, -0.13592180209560928, 0.013369011216659713, -0.19776196927300912, 0.3437742179816382, -0.05235215941873681, -0.3349317901384021, -0.12110410477718224, 0.19516347507869386, 0.036836107296585895, 0.11694456964441786, 0.05040530579441579, 0.004755405450222563, -0.05577689016855961],
                "bias": 1.0689562602324743
            },
            {
                "weights": [0.39285088560183024, 0.10602507023381229, 0.0455816762241438, -0.07722938816362768, -0.0023699978680596315, -0.08611640497870458, -0.14931480521229945, 0.39320480472918334, -0.08832325710384484, 0.014481244931825968, -0.07155152577246532, -0.08842001161801928, 0.04391535820164911, -0.017305629178889923, -0.0055268243833911665, -0.22036415536608697, 0.018679651559565264, -0.007349185790239469, -0.11361250441316176, -0.09396894839058205, -0.038456253816341435, 0.0030851409293413986, 0.016857562387185016, 0.03306315493253933, -0.012945497382278678, -0.06046572867697409, 0.025543396814247023, -0.3738442448279517, 0.29998068831119695, 0.04470670040498671, 0.03667670341022296, -0.13269794604292534, -0.008993143011767572, 0.15973247950297786, 0.002622981260546543, -0.03941285137591079, 0.10930934379955191, 0.016448013565127394, -0.027762295605754637],
                "bias": -0.560232763989574
            },
            {
                "weights": [-0.04158204459330741, 0.164532509054609, 0.022083794608650176, -0.07495704841081671, 0.002356338156634432, 0.029825193622907354, 0.017475706821984308, 0.07122425980415754, -0.012813044246981728, 0.16642531021948478, -0.026700634935065286, -0.03892238506928155, 0.02690727850051153, -0.10121067200347666, -0.010141231554051907, -0.04426062848005255, 0.00996618709758349, 0.0022998912563100024, -0.1686898514249746, -0.6610759857529745, 0.03143342574530789, -0.03648510411794637, 0.018464825669279445, -0.014086330959045892, 0.026877563169629727, -0.022409691633199686, -0.0183773939239084, -0.06784134444218796, -0.05396428332295091, 0.09724978386050871, -0.0357801052830552, -0.0919387036922611, 0.0232585504379461, 0.027288015038303443, -0.017526721874751416, 0.057759127925311404, -0.05318058048230058, 0.00950731670577732, -0.19340795196686847],
                "bias": 0.3361234769432451
            },
            {
                "weights": [-0.8017540099276853, 0.42500263972206415, -0.06046997948205115, 0.2657349773456716, -0.0006193460984131845, -0.1334359095653932, -0.06215718404211356, -0.05598081695912464, 0.11391877855029713, -0.17075286919170726, 0.1775324937186736, -0.02270469539613156, 0.10219119581022798, -0.26359042947829964, 0.020633707671474686, -0.03543659627700981, -0.10363035023161589, -0.0019520256468334245, 0.1182334046530833, 0.10214935536059545, -0.015475654048597952, 0.056072760665161016, 0.04129257403795011, -0.0919303243502033, 0.06184511840015528, 0.0543460340838542, -0.071957632933489, -0.08309094292723244, -0.07913414572242812, -0.16623547305592443, 0.4629113351713218, 0.043330544870780786, 0.15037442837289072, 0.03721819995429081, -0.09829648833812335, -0.4699157097367164, 0.3280744261845021, 0.05379192670774732, -0.06017246557933322],
                "bias": 0.8772386197301657
            },
            {
                "weights": [0.45648815896077233, 0.4656240001038341, -0.07354317525449615, 0.28150923596415434, -0.010492537200044064, 0.08247754130983127, 0.06467228325308517, -0.1347346583571975, 0.12898033609371629, -0.03708298902384323, 0.060203311736800304, 0.08169583325062067, -0.05311929845910868, -0.2609189247156928, -0.025811103232398287, 0.03467785676983617, 0.0939098579909387, 0.005951237626951697, -0.0049969497731494165, -0.016763067519950204, 0.1518865739654031, -0.1022106698855, 0.006680047184326252, -0.01231352936954129, -0.009716212145953064, -0.0007213649624146219, -0.03743311216656449, 0.32848386170037197, -0.003015430089212266, -0.06460500564913754, -1.1905743903948218, 0.15096132316212557, -0.005555471908649858, -0.013322355752361622, -0.08071818643577608, -0.2065526969727383, -0.0341863504634363, 0.11623176886452533, -0.021456909292323956],
                "bias": -0.8134278421320221
            },
            {
                "weights": [1.259330583199618, -0.25775758213034666, 0.12549179357990048, -0.22316766474714034, -0.001235257117441251, -0.056060853961923326, -0.247678609062379, 0.2159252230729606, 0.014748797996910453, -0.010543108280399033, 0.14379219849909652, -0.08835043144158224, -0.012535068223542358, 0.4215028261668104, 0.0008398693544488675, -0.009696296340939506, -0.007427826002246712, 0.0015401662319684474, 0.13061265293734153, -0.08794915529407167, 0.07667238716949351, -0.024997924917547116, -0.03012564767952947, 0.008819144265680872, 0.026753618541518878, 0.13265880602011385, -0.140305114544846, -0.025324347348689748, 0.06398290896559967, -0.08055794258492707, -0.07135390451988088, 0.08150807529871494, 0.06337543073162877, -0.1762412862407724, 0.0006320788922216262, -0.05773923260128622, -0.007251408575564317, -0.00295281139873341, -0.04936966345823535],
                "bias": -1.1223320868819637
            },
            {
                "weights": [-0.012856115408890964, 0.012441462978331317, -0.035551032029010235, 0.0068089683092754025, 0.0033113052733226784, -0.0019541550717987366, 0.01778510450754511, 0.10428515751830447, -0.02573401303545961, 0.11126584354697344, 0.0683063209485765, -0.07797119944230571, 0.01523293716952109, -0.20530560987710272, -0.0025359127236972917, -0.06216261094085843, -0.003993241807154198, 0.0012633267189730958, 0.09028961479051567, 0.02537961395076543, -0.013656850855080645, 0.015611732759343074, -0.04210973431943271, 0.03287473194399356, -0.006475372146081396, 0.02855646207653347, 0.0034209279826985417, 0.15226391378063087, 0.12029129891395224, -0.029912105487991413, 0.025726429098454247, 0.03389151563796509, -0.0140094598453084, -0.6337991011860424, 0.003942030351995839, -0.023288106453940968, 0.22030253119230536, -0.0028454914221640575, 0.03636137996527348],
                "bias": -0.04339689648602797
            },
            {
                "weights": [-0.35958367827183874, 0.20614903896708436, 0.0025639926986625247, -0.06432728050987511, -0.0015850672012902337, 0.19106460773751313, -0.02166064139213262, 0.24965093222767648, 0.1399186667787764, 0.06595471652063754, 0.060687156847635745, -0.2736769650644048, -0.008732558327813241, -0.009301992087681924, -0.0160055980285963, 0.044735077863133056, -0.03499798683982741, -0.0037944823746443243, -0.11613395892571549, 0.0841429974072631, 0.06211318264435312, -0.11204414291701001, -0.03745124888654648, -0.0536290293158834, 0.009424720803898542, 0.03744957872924674, -0.07991381293682816, -0.037559916400867914, 0.03139450215773135, 0.6690705373862625, -0.11991070976340124, -0.6214246334513002, -0.12312439893441256, 0.037643540208130905, -0.03755590003275749, -0.15339920694574036, 0.17668015690039365, -0.052786679058804374, 0.10711688545393647],
                "bias": 0.2350959695895179
            },
            {
                "weights": [-0.14692796369447786, -0.11128469586167854, 0.05947337877725882, -0.16934149822782363, 0.001740516326336105, -0.05081530149712052, 0.20039898374057316, -0.13201255323436106, -0.01413215726102096, 0.08731207914340013, -0.0033779259231940554, -0.03734301533585648, -0.0042586040402759475, 0.27967967623565904, -0.025062721700345954, 0.09378954383923799, 0.015057811686292083, 0.00124021296679699, 0.05006146410203399, -0.11019582987123056, 0.002953956504008463, -0.0065351812380940195, 0.044481619911904136, 0.006927885687186381, -0.024001197558464145, -0.04219200270436665, 0.02134493366343596, 0.49329987744386083, 0.12998477970438144, -0.03061976085236863, -0.06073442792791653, 0.07372568389396403, -0.023938315034422675, -0.498147314873657, 0.020494868205057675, -0.11160962166766493, -0.25972385029684136, 0.00036865798650124174, 0.017620594431549542],
                "bias": -0.5636385179628884
            },
            {
                "weights": [-1.4445749206749012, 0.06994610134533472, 0.04497985661599767, -0.20822560161712356, 0.008409083856777442, 0.43970627792887673, 0.2510920378280089, 0.14980528573436858, 0.08468873718060943, 0.00526828641109754, -0.217179757588836, -0.15483944797616314, 0.026617781556209058, 0.18090492449725204, -0.004447397531727649, 0.05257319927962388, -0.02507887487401486, -0.0036282770881993186, 0.1879662889694113, 0.07252360333583768, -0.11976863417070813, 0.11722686361524222, 0.07198997281634334, -0.05583051947388858, 0.007162241506605586, -0.08026176961313072, 0.08863535755162588, 0.054868385231454916, -0.1093638891111565, -0.30497080539646465, 0.20464875608389685, 0.1521761486524731, 0.00125792063167084, -0.0031965850995177222, 0.03724162981654437, -0.21642451390508044, 0.12438772706170799, -0.0771393402024223, -0.11958418223683198],
                "bias": 1.3082655376925134
            },
            {
                "weights": [0.014903143369297824, 0.07625995111783711, -0.020434086404371537, 0.06814473834867313, -0.0025779564992240204, 0.006944351924783894, 0.046676252703983484, -0.029320838644738542, -0.05026243001831748, 0.03833729421780393, -0.05231646145619195, 0.03911321655360559, 0.015413563592264286, 0.008239257486636929, 0.0005992965929823349, -0.019724973373660262, 0.03159120839349882, 0.002246176972248936, 0.023109723731974285, -0.006710112161480608, -0.011123403678588363, -0.0045940278797185425, -0.005596081471321541, -0.6453308053984115, -0.05676261993914443, 0.027458565727249317, 0.5868576100379759, 0.017634001428960114, 0.02956665702894445, -0.023780544500241065, 0.031045177640234047, 0.03496150773161194, -0.023947573736505363, -0.03176161959434662, 0.022599778586085806, 0.002009866992085766, -0.026790356893645992, -0.01226462255571723, 0.007425945878053769],
                "bias": -0.07111691421692184
            },
            {
                "weights": [0.7740302795409038, 0.01887083729138536, 0.07267768843279442, -0.3063389488834361, 0.004662932735359483, 0.13674899915840683, 0.1817146437561982, -0.3335195705163239, -0.164782473149119, -0.1969715400196333, -0.29899189454513475, 0.25602452769970263, 0.1769714020675207, 0.2899691951811275, -0.004561792093580404, -0.10101700904070322, 0.07590445094842548, -0.005833638060421243, 0.2358495642582691, -0.3210966624501734, 0.030295254906096403, -0.008683484929200135, -0.02490049523703922, -0.005253492694168135, 0.014841963080380216, 0.01591084897630444, -0.026895847017146195, -0.3672131120717705, 0.046757008005430443, 0.027536216879217312, 0.018861159398556968, -0.12292430647123294, -0.04791059101435078, -0.27338089326394704, 0.009846151351624966, -0.0018112497437504172, 0.09962981857266305, 0.01495638751169168, 0.18233053242846653],
                "bias": -1.3412258742887762
            },
            {
                "weights": [-0.4112389466228588, -0.0527714719680223, 0.02505055158220148, -0.053217121708433644, 6.073399847266984e-05, -0.04938569370995039, 0.04260499560498037, -0.06031991019704323, -0.006711573286320395, 0.06165818563046442, -0.10233994929830632, 0.0457372924988362, 0.038148389824618566, 0.012965408784028692, 0.0012352180123252248, 0.01714042897322373, -0.011638198082507219, -0.002721276743832085, 0.046309402454945914, 0.1299897120827149, -0.0037084385014596443, -0.01403375240721586, 0.01641353753227241, -0.11028851193680252, -0.14406946213164457, -0.010906587235453449, -0.02869101792842506, 0.03950137806882151, -0.0001210343190038551, 0.13002195365718133, -0.07435825945646447, 0.02213099268281058, 0.002305694443285892, -0.010442418650536014, -0.010830167649969753, 0.0289746364679836, 0.030733906753779718, 0.016770264773398453, 0.008573385335267853],
                "bias": 0.621924119471663
            },
            {
                "weights": [-2.2506461970357803, 0.3445533302214316, 0.12512329076171688, -0.23254814996441772, 0.0036009649186893263, -0.011511776403700767, 0.06778042334962761, -0.05252326491459419, -0.06621477296510826, 0.03784877810555107, -0.05784967947110653, 0.030780744566317585, -0.01202092900394598, 0.2829641570191267, 0.0019393880958613668, 0.004136609692529236, -0.01506473269304714, 0.00011534591845942016, 0.056930210260783994, 0.08084985630011937, -0.029166782603979643, 0.013122363099620709, 0.017321776930000077, -0.019504331203691275, 0.00315680093344741, -0.028032873079285266, 0.0004418605421650697, -0.042554007557486666, -0.03357576900626055, 0.013086511718442238, 0.05114638682122524, -0.016256933693083953, -0.014518086272374829, 0.01874745681401045, 0.02469571721887731, -0.03036526710833164, 0.01612156334359895, -0.016916967622322525, -0.03305844734790283],
                "bias": 0.8464358106395306
            },
            {
                "weights": [0.40308924183211875, -0.7680828478515163, -0.08828629051625514, 0.17531761688176906, -0.008102500056692434, -0.16460143013194348, 0.013140634968504762, -0.018839083757727113, 0.1210369857729523, 0.1523153297699481, 0.026563702220475913, 0.018810469934429582, -0.1407545534396304, 0.10067280508448002, 0.016681063350884838, -0.005972463603987578, -0.10412138653346828, 1.2339946831183642e-05, -0.08180320898931585, -0.29040392459204184, 0.030715473712453232, -0.051085246750348985, -0.04320774800332827, 0.026358104279303365, 0.006461210225294179, 0.021112363239253508, -0.04420528344197739, 0.011121890786665024, 0.02115226122546956, -0.011339678158047962, 0.019457607433786966, 0.05512162149705901, -0.02547692973215911, 0.023961594415795425, 0.004495248928316989, -0.041336753699797064, -0.01594771468538016, 0.013603420226987092, 0.01678409725559361],
                "bias": 0.8021287635351915
            },
            {
                "weights": [0.5836121109187783, -0.12364744770738914, -0.005030501792882788, 0.06438916357015498, 0.007352678707267966, 0.008674141253501431, 0.08093749676916305, -0.3295919250515365, 0.04484814699456381, 0.1019873898217899, -0.07843847568102304, 0.08763072012387571, 0.07601542936252678, -0.03319180971538182, -0.0008180847131611646, 0.011443792184024788, 0.01475114484532321, 0.011817872054942528, -0.293178336145573, -0.5450515677493163, 0.017440373663935926, 0.025659165307488557, 0.024913496110170293, -0.030638732273272993, 0.04973416187137369, -0.005301435000349851, -0.00016763537180085875, -0.0306726885048236, 0.1301687870730147, -0.00403581314990132, -0.02464276999360342, 0.14241723294321043, -0.029468502447355174, 0.036775327308007935, -0.058742576783973495, -0.07741297848435467, 0.19848606096003377, 0.07268189436713242, 0.134842053596702],
                "bias": -0.33471372914639
            },
            {
                "weights": [0.1228204768210333, -0.3266286465574568, -0.04881745552161156, -0.15617650603963731, -0.009561255624309605, 0.0661291515205612, 0.13026501294871845, 0.06345353289510072, 0.1535062724059141, 0.10147622394339248, 0.2096370575031036, -0.04807923583773486, 0.04023015037986504, 0.2967227312481835, 0.11443443144974932, 0.14583140880058104, -0.057041019883220766, 0.013083223511226292, 0.08875549796799158, 0.12842705454834447, -0.11740016182423242, -0.009675548513214541, 0.002645910773670925, -0.02156088775306647, 0.02688676944431251, -0.03711680657484543, -0.03282102485098629, 0.2229168633224039, -0.058913642193664406, -0.10824400383180069, -0.0697159169760916, 0.07977098186399403, -0.1578987630453294, -0.06186246551121401, -0.03301592108410142, 0.2632930289708211, 0.1183797204349438, -0.8346621343147658, -0.08061780214932018],
                "bias": -0.12890046463427396
            },
            {
                "weights": [-0.14689556141768445, 0.038245156301265945, 0.051442123493647865, -0.13717915597574187, 0.006876421336302213, 0.010959172144809015, 0.1324837383722294, 0.217990749039911, 0.009268903250201747, 0.20466234621370774, 0.0181910623719428, -0.14660894767417065, -0.10132878518910367, 0.18250101680585296, 0.01679956008657941, -0.4025596905700117, -0.004711385383874383, 0.005268077725302285, 0.23722979677670825, -0.5876612097401079, 0.010602390969057695, -0.09328311952158162, 0.03508366371288882, -0.062306389802394946, 0.02935480565267801, -0.0361229500354787, -0.030962544479901353, -0.3178550390760933, 0.32621904610581215, 0.17010618855433304, -0.09831634804718595, -0.13809437660011611, -0.13141023925536816, -0.3626560315967532, 0.03643997296459418, 0.032959931494453976, -0.09806926392171748, -0.03668490181871514, 0.5287199277508524],
                "bias": -1.0701451247740463
            },
            {
                "weights": [-0.719796342918687, 0.27701645699063965, -0.04847644421786171, -0.10672949166825045, 0.010007831317010085, -0.0015921163701234677, -0.12746412031399973, -0.03999601341910478, 0.1169678621353412, -0.24792017103707414, 0.08404281121729125, -0.010697670303598566, -0.048875115812657854, -0.04281944445000792, -0.03160103482439513, 0.06634380494206935, -0.03300364555010953, 0.007008824863886254, 0.030557245126280646, -0.03272101275033289, -0.0551912107677518, 0.036193398204040064, 0.10190504978951014, -0.09493942296765027, -0.016144438904967622, -0.06796267583350307, 0.0703389799486988, -0.11941135723392196, 0.009338315235362675, -0.1464233811312475, 0.5127135903826054, -0.0031988066036495112, 0.01403895286897123, 0.11873445533859402, 0.05984094061683167, -1.1228850879493646, -0.30575862339581894, -0.01575225226607269, -0.0004274392094717204],
                "bias": -0.09519290492852187
            },
            {
                "weights": [-0.42546940652871784, 0.1561306972073889, 0.017919709354032247, -0.0382595154383302, -0.0026316374243237394, 0.002897335463462569, -0.0453213594155584, 0.008011313789721737, -0.002128634161247862, 0.06453187339836301, -0.1017781768033841, -0.007519138241874474, 0.0101431393066877, -0.05507196141727074, -0.014002787819322345, 0.012216903554955472, 0.018101735832963397, -0.003673258034456145, 0.07302516231256762, -0.14588114810773495, 0.0016841247107784569, 0.05984381147854914, -0.0176491730624471, 0.06276854214683282, -0.07145480603445173, 0.00225337272324263, -0.02087833287992105, -0.12640381076568127, -0.012095953430219583, 0.46895047236610665, -0.06113669343018686, 0.27041713344708934, -0.00394157163363608, -0.0263357701377028, -0.0009304387223239786, 0.00245538709128215, 0.03660909503048878, 0.0012623335536644648, -0.0073844832788765346],
                "bias": 0.7240454186296218
            },
            {
                "weights": [-0.5588726012100104, 0.023784020326339996, -0.08465084253313086, 0.2324021525529987, 0.007124527696136695, -0.28094313945250937, 0.023675888350542768, -0.24372089435481667, 0.09756260726241768, 0.0002608915836092641, -0.10299725185701075, 0.10084170745461472, -0.07048634643565775, -0.14756639322259685, -0.06225620214922596, 0.06662295802969952, -0.19103277329078008, 0.0013220043130164586, 0.17637977201061933, 0.26848841116184974, -0.041303101052923105, 0.03483322748154619, 0.08987932052695338, -0.0023272213790167156, 0.105128400526917, 0.042195193847082105, 0.20668845336097122, -0.21266938821082668, -0.11203900414376171, 0.18636819173386282, 0.20287461537615323, -0.12987155139731443, 0.20010795243742566, -0.07921832492404103, -0.1032175686880397, -0.043997615823618566, 0.031118718937132077, 0.0018811049238751758, 0.0008674464985782104],
                "bias": -0.31527260641717236
            },
            {
                "weights": [-0.12549329199541884, -0.030032127762029223, 0.011566419969049547, -0.07528471051432838, -0.0004469566779796111, -0.012208520096628787, 0.060938857057074566, 0.07067204822515497, 0.0868824349441879, -0.04038045183047558, 0.039927483125873936, -0.04685870525303873, -0.051105355008637214, -0.19723705808935002, -0.002189427615602639, 0.03741956619820778, -0.006504101156106034, 0.02544991404655147, 0.1259271479293193, -0.06567462530309277, -0.07346580277685964, 0.04496323495122409, -0.03244568271272313, 0.02587900032965212, -0.39865119409016236, 0.006537660889017545, -0.03247061668928811, 0.18092340122920167, 0.0483945941846035, -0.3773630501201401, 0.07310790217197247, 0.30631273714663987, -0.029788885636197228, -0.02734308829080097, -0.03549087209357976, -0.09195131447163368, 0.008657478244619654, 0.014075084404119613, 0.006143919730985033],
                "bias": 0.4729099748487636
            },
            {
                "weights": [-1.3874462449798102, 0.36428594231824707, 0.0013982575393600798, 0.10915719924999205, -0.010297235215442672, -0.03366885791729932, -0.03780431149044361, -0.047606897934090876, -0.07506207534278085, -0.08434744116426209, 0.09996571292035697, 0.11565092156097179, 0.10652327287538274, -0.09692514737125883, 0.054060970597278046, 0.01107801725464132, 0.03467100745746364, 0.007810749973038951, -0.05134509773745792, 0.011645548648152882, 0.06996864236691082, 0.019219977905181887, 0.09649117644782264, -0.030585996624626265, -0.04512670980524618, -0.04303897791811151, 0.019296547014268767, 0.4775165522507708, 0.24306751136790372, -0.010148065298150806, -0.11343451463527893, -0.06206125391699011, 0.0005121197751121152, -0.2127643683950538, 0.02848248921294671, 0.26345057687450124, -0.02705580090472709, 0.019047559265759635, 0.07853687061903251],
                "bias": 0.7715051215264938
            },
            {
                "weights": [-0.2752743735059777, -0.05253118450170405, 0.04683415164501847, -0.13999086338339636, 0.00257744770951387, -0.05384462293811051, -0.0012599902309355065, -0.1033610977571816, -0.027280584906335933, -0.24855589350813215, -0.05225232974956141, 0.04195213628398788, -0.013041159534894991, 0.2200195087446495, -0.010683116281790955, 0.009877141973031283, -0.009283885217912695, 0.005169267812888538, 0.06471224054607598, 0.03463819416671922, 0.016084833898639052, -0.002264102900797046, -0.009632877587826763, 0.014537475869953612, 0.002706932298003022, 0.014074377313908207, -0.0010612535681881767, 0.09556508718386893, -0.7624911191993562, -0.02354631561109921, -0.008294227639350553, 0.03154622479843354, 0.023482948927597596, 0.34154390673231194, 0.0005472665874297119, -0.04801516906158032, -0.06225563771579245, -0.006993978805352105, -0.021379372623255153],
                "bias": 0.07258092232394166
            },
            {
                "weights": [0.11118646356284256, -0.08173616756543094, -0.0407502481487981, 0.07984514473100739, 0.00459347368543383, 0.03268482207341864, 0.2571737230628134, 0.07943436413854138, -0.02594540433531939, 0.052918694692698574, 0.1268220338034227, -0.6710041082265795, -0.014810990183333662, -0.37505090858535645, 0.001865940757774804, 0.1297860224644151, 0.0105463354504954, -0.0008945490524533095, -0.05597930278345024, -0.11996076275907765, -0.0056954456324777875, 0.021251594327425176, -0.0659155572104539, 0.05226157997643486, -0.005628720913572933, 0.0023001633398002054, -0.006485434708023373, 0.23871559008132684, 0.028693451073071568, 0.03965047985228217, 0.05146111885474376, 0.019473211536053973, -0.0039560271893717535, 0.021069535585810314, 0.03726555395713106, 0.0404121737025456, 0.03478759340246464, -0.01591769882889584, -0.04139174002650445],
                "bias": -0.6707449055566495
            },
            {
                "weights": [0.7081462617824336, -0.9737959258935254, -0.1249665531054787, 0.1420537884837004, -0.008021883156451609, 0.09076966576650074, -0.007391747027794932, 0.12343603750801363, 0.07522515636270438, -0.11261518717627224, 0.059922584593111505, -0.11061304012715514, -0.0686233314193849, -0.25618583520008237, -0.00032499440158795473, -0.04669701717975187, 0.024141196606780525, 0.0005693773961990555, -0.033500745238737244, 0.04558851074050374, 0.030551175920468215, 0.01192473731499243, -0.0285314430988805, 0.007889545284861653, 0.024210257345550972, 0.05572115029990524, -0.019609190317150846, 0.06494335884090684, 0.015852087471079225, 0.0263843130943738, 0.9094105568835551, -0.030069494165044952, -0.04493670778887401, 0.0002740043310910657, 0.024585445001931834, -3.9441347199577277, -0.06246351683402242, -0.16513342005505535, 0.01237064193809406],
                "bias": -3.0332248215758977
            },
            {
                "weights": [1.5620072290388336, 0.2691373284230371, -0.04215261296776993, -0.03645000848069621, 0.0038892731309568963, 0.1517537219737169, 0.11771585392908637, 0.011641179788389553, -0.17709854251034074, 0.002600270546553339, -0.12207515478380877, -0.1532037662582238, 0.09519667552064286, -0.05861457911940311, -0.0429150721502897, -0.04512752044368704, 0.08204867547632724, 0.005258099783180919, 0.07366909160576167, -0.28666416945885165, -0.11183718542284785, -0.05684066555162988, -0.09751992534896982, 0.07852500480098769, -0.016499807869005522, 0.019894218320816903, 0.0018125055045823083, 0.0016094420700000342, -0.119769037997176, -0.007233460852912546, 0.11277848626124864, 0.077647981763506, 0.10024364027681872, 0.07949192247403217, 0.035078892213262006, -0.04314101974590684, 0.059762015835941026, -0.03376651653124414, -0.09338221935069904],
                "bias": -1.3323060398808395
            },
            {
                "weights": [1.3506594575231474, -0.37101774786153574, -0.09009723599708012, 0.21992661656141388, -0.004848190163219894, 0.3416396275295893, -0.17385648162084982, 0.06461263625663095, 0.020140135068377134, 0.01639360213695165, 0.23407480588961785, -0.024600671878711997, -0.08427339922435191, 0.03394547752828662, -0.06227596217573594, 0.049560655747357026, 0.04306377438485339, 0.002399711050923897, 0.01158543952552269, -0.2513383962632148, -0.0024806864711748584, -0.03563422160235812, 0.05111665022444096, -0.03139697238073212, -0.010499368575636676, -0.037667767961767, 0.017657191099748615, 0.21034404350106073, 0.022649166394358832, 0.16175499951572725, -0.034878275867459514, -0.16681323277464447, -0.03587598636807808, -0.07090891542810034, 0.10657672937851223, 0.03669200255967461, 0.09201464686454679, -0.09451475333020454, 0.05536749524293283],
                "bias": -1.1833323337864912
            },
            {
                "weights": [1.289800903754968, 0.2505668793805571, -0.04747385717510093, -0.005188021448647123, 0.0006012956353094513, 0.14822550227930617, 0.12147306229203897, -0.03167386045158911, 0.06770825275096132, -0.1360202557666393, -0.043107160866467084, 0.12327136921845801, -0.02833681250396897, 0.14129960426810848, 0.016234319185517977, -0.020663277303194737, -0.007203238099686136, 0.012270090071474494, -0.08249803482835641, -0.4367081957538055, -0.01756278999920597, -0.0829427325394861, -0.090309728044252, 0.04527405774464671, -0.013709732869623542, 0.09110566544716844, -0.06518236883833406, 0.2934635226439745, 0.08916701914775499, 0.007288085549290112, 0.050972786320280496, 0.03962627774835236, -0.09046261527353579, -0.004171247564075712, -0.019736276922034415, -0.10965280019331444, -0.07394702237742042, 0.01477424611172817, 0.04524903073541969],
                "bias": -1.2153021184067443
            },
            {
                "weights": [-0.8885359036681683, -0.5266842521084789, -0.2341697210849758, 0.17233402868922412, -0.004177989889400218, 0.22443461074999477, -0.04084744982182092, 0.1952642801066173, 0.21170954347769885, 0.11063096698608815, 0.10215669130751695, -0.1301456716951772, -0.1235099548637462, -0.235467801861256, 0.015789340561272944, -0.03524465894198108, -0.08044445572180102, -0.009858020266338635, -0.06273402753415495, 0.15292453386903343, 0.1434467524036176, -0.06126638283403856, -0.0577344674615747, 0.050093186349439045, -0.01939975792074752, 0.007490899802811701, -0.039925193087660626, 0.07581614915467728, 0.13385291310521608, -0.036705585787530665, -0.10159118358194903, 0.046548407938725854, -0.050286479444581006, -0.059905337256480395, -0.04328996515164863, -0.17671263517696803, -0.22870065146567403, -0.09978675062729037, -0.054359595500083555],
                "bias": 0.2654223239200173
            },
            {
                "weights": [0.07178261866088605, 0.053074158201884485, -0.029147455555411816, -0.03184082108331785, 0.008314196878848963, -0.0036307426805382, -0.14441045530676075, -0.19397825356252651, 0.19172045547192332, 0.20723948105233003, 0.03469665277641065, 0.05996722589079759, -0.16997402075195384, 0.05600038722578992, 0.006041532486560361, 0.005743253075497752, -0.07675826008544431, -0.017021223768566907, -0.13314300698373993, -0.37352426893775015, 0.0028102337929822897, 0.06871923925246834, 0.006051054709684655, 0.21468480202581808, -0.37016703809474766, 0.04386183489557534, -0.035651830449937416, -0.07971346879567821, -0.03389346151148582, 0.07689336557870913, 0.15717536987478348, 0.1701402848454306, 0.11079171756740963, 0.044090482146178306, 0.018740727823268664, 0.061183410924032455, 0.06265334199775356, -0.07329048091458285, 0.08411794678787099],
                "bias": 0.19804509073249313
            },
            {
                "weights": [1.0935968464922043, 0.2115962481926947, 0.023859135490447502, 0.08083288959274303, 0.011251403778633625, 0.10638175223822818, -0.031582325036698077, 0.049506814361103046, 0.12826217979559842, -0.23439058763893006, -0.21045324364219067, 0.05478989342631667, 0.02978160076561892, -0.08880321811947392, 0.007816008460790627, -0.11413389566257952, -0.021874022209378067, -0.008724070472706043, 0.19591578053610542, 0.1067430530616906, -0.03155357961539156, 0.10949557314711948, 0.010611143239218886, 0.034771900936852077, 0.000126949993770297, -0.10188152924595743, 0.09358982429462331, -0.17081121778001185, 0.02831698610459514, -0.28813913647641604, -0.03192947659516207, 0.2231064946611886, 0.00702706345674634, -0.05412345215042129, -0.0905920801869362, 0.16980294123048534, 0.0664574912986371, 0.04476899029346932, -0.09311985982583929],
                "bias": -1.579048745785659
            },
            {
                "weights": [0.07064097717665391, -0.15920189448948602, -0.2709159571751599, 0.227579808683731, 0.011309733984970382, -0.08879927130899758, 0.2461246890903746, -0.13970293939008047, -0.1739261781503003, -0.3382435610721552, 0.07199082364543309, 0.1530141869308609, -0.01827280260079877, -0.6607539382386317, 0.011971850486861406, 0.05254318503336146, 0.05644805963927813, -0.00968786390046985, -0.10677141258081968, 0.1476730545828406, -0.19428401593456435, 0.10455541187416258, 0.09106792932261969, -0.3019185958347183, 0.10418227935749583, -0.12034381016814102, 0.1360295993536187, -0.005218715854617363, 0.02412911753166399, -0.08849223169548812, -0.0001141267790198611, -0.10791984046102521, -0.009960771916313732, -0.11036884343282569, 0.14391156678041228, -0.0854812259874618, 0.20069589964709317, -0.061115165956065226, 0.10639282797073751],
                "bias": 1.1663185603476633
            },
            {
                "weights": [0.2299831337908498, -0.2507315264452315, 0.10657739894827767, 0.08944904294580998, -0.00510421449830954, -0.21590171990921678, 0.1424768964109092, 0.42107923960998483, -0.08221130233948007, 0.12873019702009345, -0.05995363881438429, -0.48374530899615814, 0.1482232913837332, 0.25547009075556154, 0.01588546289381753, -0.163807673518633, 0.006655527254421399, -0.004123371366842178, 0.07650194217863825, -0.08938490266095782, 0.02396687504236561, 0.0395345802240453, 0.0045403435656184285, -0.07983207171131254, 0.03888816119059533, -0.024738898854177946, -0.03192547326078956, -0.10666269992770512, -0.13003180992124358, 0.2009452806180463, 0.10057962889075749, -0.25573640017072224, -0.021577522324656803, -0.06668727306964753, 0.019763101658926717, -0.08979792942506536, 0.44453518540155035, 0.031176734410599604, -0.06755758857263124],
                "bias": 0.050701553131529846
            },
            {
                "weights": [-0.25082576292601555, 0.032988254597775594, -0.005063252020840709, -0.0017366279121149026, -0.0006576332932848099, 0.017920694488092265, -0.03380751109307927, 0.016076073394896095, 0.015515630224203986, 0.0003613352438005072, 0.030343197952453473, -0.010121156767016772, -0.001443465967719707, -0.05960313753119997, 0.00415331389874735, -0.004560037450116288, -0.007580414445173577, -0.049975628224650855, 0.12309696366557987, 0.001837285385254614, -0.004315941488940858, -0.8464546416391875, 0.014593444614333982, 0.005300549730476757, 0.0011453568753364586, -0.02045282010411436, 0.013445431780652828, 0.014845791497217, 0.007441742231662147, 0.03346147494719326, 0.00604354583583838, 0.6940851958261913, 0.0014569279030165877, 0.00536811707526783, -0.0042019470507980924, 0.0006436759810057026, 0.005953865160601464, 0.00042059013255441393, -0.030858542326971702],
                "bias": 0.5923984131873147
            },
            {
                "weights": [1.1860784240883169, 0.057637851452635426, 0.03566982077216712, -0.01678470151957205, 0.001973294162031543, 0.12730816624979263, -0.038312884849692565, -0.023240429675635506, 0.02837904177379706, -0.027270331330242772, 0.09087395541930883, 0.009097568674750837, -0.014654498517468912, -0.07641352473869971, 0.008950685612153245, 0.03302528918910667, -0.01610465318515678, -0.0062037317779211195, 0.11710026223878973, -0.04585418621345698, -0.05623517278845243, 0.017730114408847183, -0.025750641956538298, 0.036967792996167106, 0.008795189504486645, 0.03273259666686095, -0.03518888615915565, 0.047171012756975744, 0.09788310715533124, 0.19209344756745345, 0.2515939008110061, -0.22145758134470614, 0.020877478289045823, -0.06859501989804286, 0.006854536783298511, -0.3012185319586758, -0.028924907640875314, -0.012927259818903965, -0.1118166281595047],
                "bias": -1.7480782390053573
            },
            {
                "weights": [-0.17539980908089572, -0.05966804025250354, -0.012978246795165125, -0.03754452573712575, 0.0016786000112507609, 0.002375882871258495, 0.0016644431991491998, 0.01354788180429745, 0.02357804290241233, 0.36225900403573696, -0.019661039382101536, -0.016635040877459012, -0.002179625196398029, 0.04812424180451235, 0.008023127501367695, 0.01277715218177012, -0.008407150980234156, -0.0014643604022857224, 0.08224810595758553, -0.030872556836845245, 0.002589705910685799, -0.00632706340407492, -0.03519809073422739, -0.02275790353101804, -0.9765150826271152, 0.025059109838458028, -0.03015428565847302, 0.10157296395409324, 0.020071893182163236, 0.08795447509779808, -0.03746962320524255, -0.12747991305440143, -0.006435263241896646, -0.004775101876181122, 0.005683689974360362, 0.032551364665334266, 0.032043465344680555, -0.002987867675256116, 0.0019714943870384606],
                "bias": -0.14082621335316242
            },
            {
                "weights": [1.1343810231604037, -0.3664672820083351, -0.0031633268771916975, -0.004652791592709272, -0.002953825569712575, 0.0921764260525435, 0.1406425915187984, 0.15404993386825686, 0.10348445461069251, 0.19753739413264365, 0.004445222164374128, -0.12318207477988959, -0.06817386261217125, -0.10422685238347695, -0.02183637468590267, 0.012865567636451743, -0.03132867067238631, -0.0006334766497888821, -0.0013655590674400673, 0.15012376979050876, -0.09096444673364086, 0.03382654166655601, 0.05791288847016876, -0.03186193412364757, 0.03181165608878113, -0.06222488030327931, 0.0529676623170172, 0.1316581981903901, -0.040622898405409676, -0.03586117351380786, 0.04013531588264127, -0.03145973260369662, 0.08388426994386484, -0.003949290296989637, 0.009420112522229443, 0.09976219469832365, 0.08907965517466095, -0.056566705177727876, -0.01062681032871323],
                "bias": -1.4570303216125082
            },
            {
                "weights": [0.6737514232452274, 0.39546093437773816, 0.09740536210871785, -0.19807869542929646, 0.0066870981244991304, -0.002546584447880573, 0.04900472939265433, 0.052178851119764155, -0.10048859662633255, 0.1433960953187727, 0.08430176920321938, -0.03143152674404301, 0.06990338817571852, 0.1450870049939676, -0.0034559776191696256, -0.09385693832245566, 0.07777328537037144, -0.000451813751248913, -0.39168478045576405, 0.00014964031690360336, 0.07044319305849336, -0.03241976810876486, 0.023157446504674495, -0.03309085168846347, 0.024727328544491518, 0.032525830244815916, 0.00045236376484102624, 0.19957572463720485, 0.06329261765569127, 0.2645106859437664, 0.01634615028471884, -0.16220623459791064, 0.015822294777880514, 0.1116858808377633, 0.011101310497796099, -0.1388723717148245, 0.10186986981474493, 0.005704307940719609, 0.09272989229122912],
                "bias": -1.9555844524099237
            },
            {
                "weights": [-0.001924706323849116, -0.06835951822949693, -0.009511259784623208, -0.03213091671562688, 0.0009968181305411528, -0.007051641383254671, 0.010339716558123966, 0.038645054569536104, -0.016543708501036206, 0.035845206275774366, -0.051199524830707964, 0.00913964271517324, 0.0019401172066864317, -0.15784317823423433, -0.006259150468591375, 0.03145683052747972, 7.748439979165755e-05, 0.0005972549038558584, -0.593286563972851, 0.06524964167451607, -0.003654386054638486, 0.005581099444037063, -0.015207307295329226, 0.021942699832661963, -0.002065938486354737, 0.013457651472853238, 0.010226385369477146, -0.05847763587308436, 0.17566278769741112, -0.07892158830591975, 0.01862684918189496, 0.07682710795679965, -0.031071107344836233, -0.03593263048264248, 0.02749567144111274, -0.050915211724472054, 0.06901370328860898, -0.022791204657121592, -0.3373780984187842],
                "bias": 0.5001199082656257
            },
            {
                "weights": [0.425428113827977, -0.32810166462922496, 0.03841503493550949, -0.2004647321079097, -0.0046816530592980075, 0.014964349974017098, -0.20949006268319867, -0.07832103394138243, 0.033783524503394786, -0.05595436174425134, -0.13042262737777624, 0.039706422652935947, -0.16837899391947805, -0.09836211928535982, -0.032998044325146476, -0.03779657577494349, -0.06951346995129314, 0.004218908011814595, 0.02665125355102602, 0.3912885418930874, -0.09231511137446141, -0.11191885622066026, 0.04139331129908302, -0.007349148162106857, -0.05903157871291249, -0.1444735573783446, 0.10349990296062467, -0.7676530696966725, 0.013642602063353791, -0.11062972458707893, -0.355631147053371, 0.1877466222109865, 0.06872718311096962, 0.20820403534333606, -0.030298714394496686, 0.45205483644163597, -0.878953526907626, 0.032405670999331324, 0.021408932012836092],
                "bias": -1.461872568459221
            },
            {
                "weights": [1.0374813109111682, -0.07820859623937285, 0.01553254669782254, -0.006147053676645453, -0.0030303641009378933, -0.08540048146973662, -0.08773116291305864, -0.0478272567962194, -0.013526943216027355, 0.3133476288102138, -0.006917146591226592, 0.010478422297541545, -0.04384597947625101, 0.06019016127212681, 0.00811434393117275, -0.03662407913772221, -0.018216394055884044, -0.001168043347225993, 0.012449250912067104, -0.03042146564390412, 0.043681812497777785, -0.03362323955149928, 0.009108045322925362, -0.030174525877175264, 0.32451729136976826, -0.017478079480305102, 0.01478845801161936, -0.049133148070811615, 0.03002075099376958, 0.11442690123565219, -0.10178385088238179, -0.1548127926786113, -0.0005546377718904017, -0.021027193311216278, 0.023005305948162347, 0.15478240488191902, -0.040140957521990914, -0.01746688404709966, -0.019804394360219652],
                "bias": -1.0326721592433188
            },
            {
                "weights": [-0.7719815367212739, 0.08764368222545578, 0.07311441916429101, -0.14161537803014196, 0.007759247392028871, 0.03006727290101069, 0.06541539120182467, -0.012529704784111466, 0.1225056537614197, 0.034001645594959586, 0.10687664113269499, -0.028851416525410657, -0.028975178015214573, 0.08179258821698994, 0.022411343136827928, -0.018397493356745776, -0.05918452567071828, 0.005126409790975104, -0.10506438305717106, 0.16979891476193043, 0.021346717035789872, -0.01493187468228353, 0.021069961451598146, -0.5880133003730214, 0.2088808571177783, -0.04512908165967148, 0.05038158502665456, 0.22910509796264528, 0.032089218004507196, 0.06922593653258328, -0.02195627322500493, -0.15938353694663823, 0.012957851050416781, -0.012567713812734796, -0.03482666522722116, -0.0774090913813226, -0.00849296095125593, 0.0381996634410421, 0.07559288420623807],
                "bias": 1.264777189677877
            },
            {
                "weights": [-0.36822232845417635, -0.48267171810052684, 0.0317103717272835, -0.10424096592287718, 0.004647923094459056, -0.05404376183089936, -0.0712142931872155, 0.16336511175769253, 0.05426312433202888, 0.18998770223359823, 0.022019758152913484, -0.18217818514258735, -0.033013545636880616, -0.15954446971337555, 0.017732162575529137, -0.10340814721986988, 0.03098585064692418, -0.0006245398033778684, 0.016049910791323237, -0.21176806859819125, -0.007955543306583773, 0.004717321230591946, 0.01052201475186042, 0.001879951809936732, -0.013741378755575729, 0.02053172608651912, 0.007617842731214367, -0.1307317729514535, -0.07364735741459871, 0.017780719629331, 0.10876079200647502, 0.00044327756384257187, -0.01408403892534713, 0.052396188374300795, 0.00801982138830002, -0.013361267727784487, 0.005161696339418741, -0.02051938659579803, -0.025472408715592414],
                "bias": 0.8739855343443728
            },
            {
                "weights": [-0.08427595224136561, -0.1708176353412384, 0.2871674282886155, -1.9711019086408805, 0.4833769558373235, 0.24604973925283494, -0.3271579823555115, -0.28676176854585966, -0.052742407047679976, -0.24520733869857717, 0.051380714719006224, 0.2933113474326068, -0.09050341289294289, 0.19816705728468142, -0.04125481594927935, 0.23155450035447397, 0.06986023521687101, -0.036488320773608904, 0.14857821046604408, -0.0450727085375724, 0.09274916528823499, 0.01608601528957219, -0.02236661526485584, 0.019260256968988834, 0.032329101694364364, -0.08271346616095804, -0.04025725517612337, -0.4062405158578792, 0.038676166336193606, -0.006197522374203641, -0.0624208349284599, -0.10838619790717169, -0.02080184554179669, -0.1455428507709156, 0.0034058020126122844, 0.02030945468559642, 0.1894968540555501, -0.005663133172433637, 0.23337098261187705],
                "bias": -3.227618759556191
            },
            {
                "weights": [-1.350231034343559, -0.05051705755562353, 0.12276377326608431, -0.33581225452519026, 0.004703039211738246, -0.03512696075888676, -0.1731960858891743, -0.03288086162659615, 0.042815029865878575, 0.19725647222162532, 0.12044986417972367, -0.0037700322243128842, -0.10482330267654301, 0.34468528592122627, 0.01297021747557533, -0.005774791282157902, -0.012817881675458515, -0.001267062135903351, 0.2685138003322676, 0.49792891550563867, -0.056961271570646704, 0.0515782574629427, 0.1747487251728421, -0.11001387045362085, -0.017766477259565535, -0.1850825863762398, 0.09753571898781639, 0.024148167659902006, -0.1112165928704696, -0.16496836659904177, 0.19744810008388858, 0.18344425967539074, 0.006424558080534954, 0.08956898286095631, 0.04158055264304058, -0.12235265781794183, 0.03711662528311334, 0.0029796436922955158, -0.16377327358196503],
                "bias": 1.2944501974253375
            },
            {
                "weights": [-1.076824502948821, 0.30946622991635947, -0.07138147830201798, 0.31646995296620656, -0.014748097573716952, -0.16560861935046509, -0.05516327987939293, 0.026746558625907354, 0.028794747551576773, 0.0753588386878418, 0.2273047247690897, 0.051740944537485394, -0.04849395724436279, -0.09753974647578652, -0.05214889760079804, -0.2547416719056406, 0.025915253190210416, 0.009808545430490614, -0.09275762426714794, 0.27058957362976443, -0.04317582510776377, 0.01184644583530509, -0.020278796627432875, 0.05912169494224087, -0.014000131834875853, 0.006239746699816953, -0.02826581225252626, 0.14671732573052124, 0.03325027421047243, -0.12436527318038296, -0.029683447998546404, 0.12463248930306714, -0.08337120902930986, 0.026562802647488674, 0.1000458426725702, 0.2437397072154533, 0.05205283308178405, -0.049610588798275505, 0.17256482367084142],
                "bias": 1.0623957892126037
            },
            {
                "weights": [-0.13308880454856906, 0.14949151808724548, -0.01594364493981679, 0.08831329460222252, -0.0036383134483877317, -0.01153152470520298, -0.003210726256191679, -0.0512913772761449, 0.05054344513949952, 0.0911390121695119, 0.08454256079509648, 0.007089239297840311, -0.016980365608714635, -0.16048600850965547, 0.019420501601255004, 0.0004873967738427326, -0.012587148065461146, -0.003894885748823455, -0.4705159587140847, 0.22236305076614177, -0.008946971030901385, -0.000902426546109247, 0.001811246316770984, -0.0249517520971188, -0.00021168780293724318, -0.016329629732687066, 0.025900134839519803, 0.21344908457768172, -0.2542798334464768, 0.07832708454185158, -0.012296246726238616, -0.0670575386134971, 0.00441852275252033, -0.004567347063239658, -0.012789345895640087, 0.04163836284219629, -0.07721159800102416, -0.0020409119139508966, -0.02620239269725654],
                "bias": 0.2704619162059755
            },
            {
                "weights": [-0.4160801726591091, 0.08503737779146209, 0.07798623063755009, 0.16686986316097782, -0.005605445239179691, 0.3593106370356712, -0.0034895045787022676, 0.3845279889466863, -0.07228957595443745, -0.10481929776841376, 0.10470182199250287, -0.2139452730941413, -0.0761761622604463, -0.23315355996607104, 0.06635685158786128, 0.07541586139262306, -0.05626321795715029, 0.017580816313031215, -0.22742744816798574, -0.1300646370700313, 0.3551526820229419, -0.1487995396425333, 0.08905832802060161, -0.026082461709058376, -0.14512300818968088, -0.2251941793083946, 0.10636119976210974, -0.48589501928124357, 0.2107783666326045, 0.15325586252800633, 0.16272250830826476, 0.09788387833853081, -0.09811555710608705, -0.2820610610135022, 0.02890351545840541, -0.33114965699219867, -0.23001237093259322, 0.007279519226248632, 0.3201839341781154],
                "bias": 0.43298227022615093
            },
            {
                "weights": [-0.5502313828742481, 0.2309452406646035, -0.035732680291935694, 0.16601241313468365, -0.004500191537671083, -0.023385461536887572, 0.021206993316553385, -0.19064588007701117, 0.10021856174329118, -0.09333533603154624, 0.2222359793500612, -0.08528126074645839, -0.032325648978603315, -0.18197814682330285, 0.015031247683613415, 0.022549834139001586, -0.049685611383530226, -0.0017567076219262626, -0.08204917898477983, 0.09055278246444275, -0.03594868073221618, 0.02196246408497774, 0.06653001477209251, -0.010770105144971148, -0.0148434408800972, -0.08955795759596845, 0.013358697871395299, 0.30245044293218953, 0.005744383675268893, 0.5373262426802219, 0.009609702690583368, -0.5467969449337412, -0.0023998426954453087, 0.1641895911043871, -0.012458519615603356, -0.05624538060324238, 0.04417740370695171, 0.0136856762829027, -0.21160294565968402],
                "bias": 0.5570982599555611
            },
            {
                "weights": [-0.5403967650300704, -0.5399911317351692, -0.20372176958289254, 0.12281823572013202, -0.0009895346558351065, 0.1618494652067803, -0.018695485868735044, -0.2670402265866088, -0.11859678770954074, -0.05565512399759441, -0.22858046559111192, 0.18591117138806687, 0.0433609622442658, -0.3181603284232388, -0.03527590586733252, 0.03804210293867761, 0.032560801905975066, 0.012554935851129507, 0.007704259949038271, 0.003046387591747662, 0.09287615995602312, -0.04059227982460292, -0.09418281079957674, 0.07461356210059307, -0.005978527046462203, 0.052689139442800084, 0.016747337366859547, -0.13364420918118974, -0.015439128834239063, 0.05350413499529824, 0.43632562110558726, -0.028387809801897042, -0.0168723055097483, 0.0626986808507315, 0.05711922210229845, -0.6851968946403163, -0.03316728307180682, -0.03311685540386827, 0.07619311749382594],
                "bias": 1.466282134257377
            },
            {
                "weights": [-0.30038911513296457, 0.2526326342727228, -0.011005152742667352, 0.13085476977980415, -0.010267118188400086, -0.009318469631168894, -0.07775082338505604, 0.059398001301511294, 0.04712966648150979, -0.20457559292578903, -0.14556305058024424, 0.009053843457638698, -0.02004292001968743, 0.055425246699047935, 0.0005211391192256267, -0.010513566609323188, 0.005498941707365815, -0.00993939477070856, 0.1838607117190036, 0.14072827167960078, 0.010106721286950376, -0.06580436532478251, -0.03238300058352057, -0.20967914663652104, 0.23640848263238734, 0.04849117343590708, -0.011315265340293227, -0.09845055808145117, 0.02167523815772152, 0.019079506305329737, -0.010225664887813565, -0.4860279752943649, 0.0031860141400782732, -0.011742740578199759, -0.025379314157507698, -0.009484735290004175, 0.03127497978393776, 0.008163259381258081, -0.03561733919766849],
                "bias": 1.1315652564265875
            },
            {
                "weights": [-0.745391357199643, 0.014182668104185378, 0.026342337014410872, 0.05882868947091043, -0.002195254514309252, -0.17656129862661524, 0.06496085425518422, 0.06649898468424965, -0.19468540674869533, 0.22057945083001884, 0.02241108108664523, 0.022069271563888684, 0.10813806922651042, 0.041043007000236394, -0.04370507305058607, 0.019631243042652687, 0.02763127354904641, 0.0003988593198423578, -0.012167237469925605, 0.21762826486645573, -0.03567276585992615, 0.00892903022453295, 0.017260549119031448, 0.007638575271378598, 0.03957112505228996, -0.056645279633258376, -0.034407329121566466, 0.0012146065795315669, 0.022221088154630128, 0.06011112910796724, 0.5488268643621439, -0.12864386009781006, -0.015475725887734592, -0.09018303990846169, 0.0441851532337073, -1.0871977632690273, 0.07609206903161954, 0.05454531183525612, 0.03775058785544505],
                "bias": 0.9693661610271969
            },
            {
                "weights": [-0.146541121782414, -0.014031369980660294, 0.05356487125249616, -0.10905169607142688, -0.0008547358982946611, -0.015634125353956682, -0.032417591977119846, -0.3138445606753041, -0.03520396040015107, 0.25340997434446744, 0.04471511195969963, -0.31008514453528124, -0.0006174687802424916, 0.22071942729303143, -0.011956432519345467, -0.04921427055223369, 0.01733127976843684, -6.0504489351770486e-05, 0.006713721850804234, 0.017551031712453376, 0.02594734595053359, -0.010968211838803185, 0.006943651060273358, 0.037720053173962764, -0.010605850519737921, -0.0005051830963130612, 0.00019798160370359201, 0.11688446497189939, 0.025762096289914962, -0.010371148947319532, -0.06339656095883196, 0.04752142590237554, -0.015720336573462397, -0.05368142127218618, -0.012787218481272917, 0.03370792915008842, 0.062433344176420734, 0.031016911753058124, -0.00196831651272752],
                "bias": -0.6041596581477768
            },
            {
                "weights": [-0.3117768834674108, -0.18836261091013667, 0.053096180136127547, -0.15368525775660757, -0.00011102036638978278, 0.0027715445140971857, -0.1607216484892476, 0.18902704132632173, 0.07327483514159432, 0.1834887909691982, 0.09203414477681082, -0.1415526389516282, 0.00043292609390317233, 0.027178257654472328, 0.006736712907066803, -0.09523896508732989, -0.04852798289145681, 0.019289240834752197, 0.25962417754093275, -0.4171997195462479, 0.021952885315841657, -0.04730377801330051, 0.014133086234798626, -0.08377654759487616, 0.08350552403016426, 0.010116398281061145, 0.010732853261923811, 0.3459683472821075, 0.09998159448224486, -1.0346972174047036, -0.07868391608223751, -0.2409974685005776, 0.02111489222028765, 0.04481155108466525, -0.01551694136393961, 0.02960550885554428, -0.005971656655946935, -0.011274106225646263, -0.09357864573524051],
                "bias": -0.1995256109417777
            },
            {
                "weights": [-0.09146058282901223, -0.01659141213287901, 0.02952668766161526, -0.045015083434662345, -0.0021661824213323098, 0.0523041471410458, 0.15332883305196146, 0.16763233502689628, -0.08183407784738474, -0.17442983327074096, -0.6389219505532479, -0.16038792933949883, 0.07871068615185756, 0.07694948736213633, -0.11570938901533269, 0.0317526670134999, 0.007472927680315672, 0.0007172334926747406, 0.07542359688847221, -0.08420881034754647, -0.020186912417076694, 0.012518201285527508, 0.04149019197577, -0.041321052766687474, 0.00503112165713106, -0.05660862534181, -0.030268857764856556, -0.12116972258653001, -0.02810473747241436, -0.2150943042648343, -0.017681948129413486, 0.1973507249215744, -0.21249179816396996, 0.00020834316224664127, -0.02115486510298535, -0.03966845642440589, 0.01952213622461226, 0.030374544054188872, -0.044453873211792304],
                "bias": 0.5173328247200459
            },
            {
                "weights": [-1.2154550393915424, 0.008232584119030892, -0.09688739683621529, 0.10312354507890815, 0.003597108794130431, 0.37844585911420603, -0.07248859950370026, -0.06445069687890702, 0.12529247630586485, -0.09878058201660954, 0.11173310897850228, 0.13275393132711913, 0.09534027879167328, -0.4572170580043804, 0.043985255926911195, 0.11516569678961172, 0.008332556294280822, 0.0311331663239641, 0.10419381847600173, 0.1374664689897288, -0.012674444494487107, -0.2036962210155579, -0.2134627388212533, 0.16312581875148796, 0.01999374093521994, 0.277557999520285, -0.17577534654447072, 0.1727647018644379, -0.023159921238337842, 0.18935372011080379, 0.06286952283374218, -0.029604525360474233, 0.014795227517893795, -0.009482051596897675, -0.1022368298645193, -0.2440260434503215, -0.04301729575017624, 0.08520827887842332, -0.03766101215606034],
                "bias": 0.8189778208549672
            },
            {
                "weights": [0.03793412176964406, -0.592143740622887, -0.20549601459026542, 0.09479122719668635, 0.0034420458887892504, 0.3364335667078301, -0.04657352152742035, -0.023808568887403035, -0.00016274783140387517, -0.40247426158446853, 0.08794007133151249, 0.09168619908792182, -0.019859132155557006, 0.040599911183567663, 0.0673315410721457, -0.01716210682661332, 0.10651959727468274, 0.007076231103695075, -0.09304062712578709, 0.022044453804759178, 0.02472180655788004, -0.011352656803288442, 0.0033906410210037155, -0.05829588467578478, 0.03894072789669675, 0.06386480470879652, 0.00757424598833999, 0.08351797316891758, 0.09582966411383398, 0.05890289877344388, 0.9438664338523681, -0.1082642833162686, 0.014057519567181195, -0.1590337601799382, 0.08709113843614137, -1.012187368752253, -0.4239112211648162, -0.22177053922553036, -0.05288154928543665],
                "bias": -1.2839144737590735
            },
            {
                "weights": [-0.7079317868575439, 0.32213857484633596, -0.03902845362324107, 0.12224386896228416, -0.0022475165168550654, 0.029151699747403226, 0.03214469762119579, -0.005509464226268865, -0.0045486388174386, -0.07498413895035898, 0.043157320880194056, -0.0006369351389054781, 0.03900826876862953, -0.0791658134261512, 0.005413377736517435, -0.0058362634293543155, 0.009922734834171191, -0.0008180022833167789, 0.536044947927094, 0.11033791269376392, 0.026334233022530573, -0.006752047410467746, -0.04963958687982163, 0.02298499943915859, 0.006176870701918886, 0.053025160474535496, -0.015586091530364787, 0.22223601665023712, -0.0002756597089737333, 0.07223081437073361, -0.08406996391216051, -0.07959874349361855, 0.006577200644148845, -0.016765446927629286, -0.02952096029316395, 0.049891277573925884, -0.014433905206532429, 0.013273602141097606, 0.04383708141252928],
                "bias": 0.9246455374653242
            },
            {
                "weights": [0.48908114362320004, -0.4755454550674989, 0.005821837531194337, -0.1059685173157023, -0.004776097511849243, 0.32852036591615813, 0.19885748381872134, -0.018988534034216582, 0.24221402293008398, -0.14785399919035772, 0.1882977580149156, -0.0045465855571454016, 0.05125819678159393, -0.27606900160211406, 0.0579719412097163, 0.03290397292815662, -0.007573625360586715, 0.03004791218730358, 0.037041113931268715, 0.17316489622145922, 0.05315621433255551, 0.03662907155054622, 0.0785096468780256, -0.022864992401408917, -0.003718911591346235, 0.11354235952950019, -0.09764982383399991, 0.1517558465907294, -0.06550562155483773, -0.10592348904709249, 0.05079596910235448, 0.1261121620197196, -0.22413303464477055, 0.044178555924096155, 0.1025559739921891, 0.09746383383097625, 0.11615869207300948, -0.29944403861414604, 0.05847537855144379],
                "bias": -2.0782103822084457
            },
            {
                "weights": [1.0042230012992344, -0.14702613537584922, 0.09298369748712505, -0.1500517038928353, -0.004672927478189581, -0.07569521624089509, 0.07969724586651673, -0.03266374193014583, 0.057017511398124505, -0.0764956896217421, 0.07597724134372567, 0.02228222723516095, -0.06337524011550784, 0.1532630399281025, 0.012492526647673596, -0.017900613418175566, -0.009991185254877664, -0.0020594401928965443, -0.22345909504536807, 0.22685018888176756, -0.020693963671051165, -0.03408055091990677, 0.018130937810260365, -0.020100843445761643, -0.10577045818058714, -0.012809891559988353, 0.03543582675209673, 0.09696039137941723, 0.009294473209268319, 0.05239809445375271, -0.17075495114926248, 0.011953247755607773, -0.02767306409860233, 0.08500328707131982, 0.0061865161508493985, 0.18614381328931046, -0.08802217081740246, 5.674223360253897e-05, 0.014268419573663989],
                "bias": -1.768033127655309
            },
            {
                "weights": [-0.2651525664174117, -0.5572534796920152, 0.01644249350125717, -0.1812417351977017, 0.0052820744390830125, -0.048034926963638876, 0.10882488622433537, -0.012918715240062606, 0.0006181453025379393, 0.10963256913148112, 0.05724153763338759, 0.0121986761707593, -0.013926795242799182, 0.2747813605348386, 0.013123055861733785, -0.018573585058957346, -0.02083420976058674, -0.0023658354201805637, -0.08069914259617215, 0.7849599398294863, -0.0850168893179547, 0.005450741075049501, 0.04417929879429607, -0.09414085336615105, 0.039373416700602376, -0.06352737433501829, 0.05775188985004133, 0.1444313269358051, 0.04002619719325895, -0.020722581598893272, 0.010046641445992951, -0.03152901242018284, -0.02985896669223845, -0.01382372759310663, 0.024312886789875105, -0.1421699775913986, -0.07262447722587208, -0.037629650212664185, 0.019954420253969984],
                "bias": -2.0737066832045388
            },
            {
                "weights": [-1.245121517983589, 0.5360704322753589, -0.03830415188656289, 0.1367006565592141, 7.982172299906342e-05, 0.19269310785642918, -0.24458226305463618, 0.06842493758322846, -0.09920231762627768, 0.1577488372997439, 0.07636031572640861, 0.00568101262040047, 0.05724759289869048, -0.13954700820224233, 0.017717820911635943, 0.027034370860255535, 0.15753243262608926, 0.013834637738469584, 0.018060664378685535, 0.21103354402837898, -0.009697361593164793, 0.01284603022337102, 0.13868800259246675, -0.2678808869826703, 0.02797997740630123, -0.14336290848230993, 0.2072183434654647, 0.017103950139086752, 0.04902810194657908, -0.1950240909493387, 0.07010875871052823, 0.1710885033571917, -0.1482623586005219, -0.026719443635978425, 0.03922461134085365, -0.049811206810431385, 0.1126924571656674, -0.04259623500214894, -0.03192511972305695],
                "bias": 1.0642002424647037
            },
            {
                "weights": [-0.10912678943882118, 0.3714923754516555, -0.10160043897541467, 0.4268964434018842, 0.004949475814252842, -0.044800929422547035, -0.0822192756527379, 0.054091293331693, 0.1372283842318306, 0.048925299781814535, 0.22359278775573727, 0.2878763895658353, -0.17175471173895232, -0.2196441162902211, 0.04768169107795641, 0.11938517079104757, -0.08892590705850612, -0.03800475115093756, -0.20398765898344687, 0.18058959134214958, -0.05089393692771577, 0.08541624225852829, -0.0376412644738618, 0.00955678738486593, 0.036523791729000214, 0.036963177500483495, -0.056859192083908536, -0.14651025953553393, 0.061548435031530145, 0.27828111376956893, 0.014025196838538317, -0.2545385700457937, 0.05723823634093637, 0.08625499726485185, -0.05303183284425185, -0.061560986717517724, 0.09305969084523197, 0.0762516831419986, 0.05173906925815982],
                "bias": 0.22499315054446467
            },
            {
                "weights": [-1.1608348660338774, 0.18396658595417464, -0.06403362126243659, 0.16584022098725162, -0.003248081414046873, 0.17797515270818137, -0.1604175536440765, 0.011852903431999797, -0.04665513757474864, 0.03668801374789352, 0.2102715138262097, -0.1985527232442217, -0.011640874986162163, -0.2403836848923814, -0.031241655587066198, 0.013330591055300975, 0.051034288423597016, -0.001156864264885431, 0.13537954428791182, 0.09561295741646378, 0.037987367418914404, 0.025161275652195458, -0.055437291490921886, 0.08703692962297768, 0.029121533882065443, 0.10663951476100746, -0.01795846224990999, 0.14286948454250042, 0.04026016169012816, -0.4682411297582197, -0.007602614339215496, 0.333794647128663, 0.010871288525268266, -0.14543464248200805, -0.00973916414418126, 0.09170262295125155, 0.07340622485309738, -0.0012675363602952347, -0.010379119931257392],
                "bias": 0.8846880695597136
            },
            {
                "weights": [0.44502489111459936, 0.4005760085323153, 0.06699724143276699, 0.06437671030032151, -0.020645817910211528, -0.36271380146939064, 0.05503214852828144, 0.01077478143362608, 0.13455869560722025, 0.3761138855321142, 0.05304803540193842, -0.17692564623235396, -0.15231535797366122, -0.2081843684566913, 0.015943724387488246, -0.11591390693430909, -0.1033324702709315, -0.0141997676336683, -0.3170103596263797, 0.04914721316013603, 0.00015156081786144843, 0.17358837988281098, 0.10395989388994652, -0.09070485038579792, 0.03205932852910183, -0.2114595044805647, 0.024898195763403606, 0.0009447209511292682, -0.06677049420387547, -0.42861263144856926, 0.025903955272095942, 0.27825980656825655, -0.06681269598798759, 0.19229912978252006, 0.052137427706042926, 0.4189490232889933, 0.0006545700050187141, -0.04444981402740275, 0.2303140895487684],
                "bias": -0.9184506932809838
            },
            {
                "weights": [1.1427675581862196, -0.4802252432490292, 0.02773626678993599, -0.09538053276466943, -0.0035956645091356596, -0.03975211554153023, 0.02479309602343896, -0.07463325006428662, 0.0015113676460441969, 0.24782363323501005, 0.14305322178025298, -9.628706907620112e-05, 0.15715200697088752, -0.25483257982612406, 0.08535460214172452, -0.04991500311768284, 0.05218460976178655, -0.0032142999759574987, -0.1579961762844567, -0.0493183766875249, 0.058800887962437674, -0.018192495967894257, -0.1359230424926521, 0.10120316927047482, -0.021832940780775453, 0.23974514939418382, -0.12749104886077028, 0.22445639360920824, 0.016747259815300494, 0.058125595392402814, -0.01719606646004513, -0.03814011287764705, -0.04266579585692367, 0.04272513952875529, 0.057422090840738634, 0.2607320070568486, -0.01362738696541497, -0.052214258431839924, 0.10434607292413609],
                "bias": -1.3603145680713922
            },
            {
                "weights": [1.4642660415830053, 0.07512533585059704, 0.024364081777606496, -0.0944029592035776, 0.0024142387247307624, 0.0376558102028761, 0.14142780619949694, 0.005854705313218817, -0.04649123548118236, -0.04604965851016852, -0.08555823075706422, -0.006198676486314644, 0.017876040298876853, 0.19381017944135992, -0.022384668468989174, 0.009628190775309802, -0.005433401331989625, -0.0017898819604264457, 0.06112721155094811, -0.9557134553986109, -0.017734132258794676, -0.0023488112237649646, 0.05084331709276862, -0.057465412372096444, 0.014029504569718137, -0.06799339272647589, 0.0357455891106694, -0.004682466039012023, -0.03711026089971381, 0.08956410311770761, 0.07877181941758483, -0.10761357214894197, -0.013283156955998382, -0.00864893260332335, 0.01962620722012989, -0.12599254388504966, 0.08004481595647302, -0.006026886031805162, -0.03883783099261017],
                "bias": -0.41290535698624004
            },
            {
                "weights": [1.322277267947446, -0.33561599078727217, 0.11108290755352704, -0.14838886979083887, 0.0057208590994171004, -0.08062301681090608, 0.40935101618967035, 0.0977709051464374, -0.03986853229346969, 0.2666241881175457, -0.12583279917260326, -0.1171278196359102, 0.13478576089133018, -0.05665269403783897, -0.019031688508876068, -0.01831812235572516, -0.058282952877231654, 0.0024011702904064365, -0.03910346771742487, -0.2441789836593151, -0.04091990019508327, -0.019866472734222873, -0.053736601716032145, 0.05116248453924786, -0.008830420091062031, 0.05039258004626645, -0.059088834622247774, 0.21876079669795173, -0.15170690518164906, -0.09580143382485225, 0.13153730891172521, 0.12716569164382624, 0.0015735042714553344, 0.14302227299835568, 0.00347414799845482, -0.29671195619668356, 0.09963962007823272, -0.01160627349729771, -0.01749116991167592],
                "bias": -1.0686118517815086
            },
            {
                "weights": [1.2865185289710064, 0.12106807173025969, -0.0719952811261656, -0.00887782332189542, 0.0039972219146298315, 0.02320353417138607, 0.2068162437526575, -0.008594038281341239, -0.22130192437392243, -0.11268650232470295, -0.2540253663770676, 0.07898197229145923, 0.1681076417747152, -0.04125793600482698, -0.04117232610380024, 0.07087522868542469, 0.03398904415821899, 0.0007516368731601097, -0.14393589334386336, -0.2003547593890298, -0.0032589820254602456, 0.0408885390041619, 0.040173799174965066, -0.050584552453288044, 0.012494676261405826, -0.06921299024542303, 0.0443259831810637, 0.15825266032429047, 0.05089389060831481, 0.016995496940928716, -0.23813730042305592, -0.04062754829793869, 0.07570281917031409, -0.03925931461488418, 0.07450122299527853, 0.09699401410262881, -0.12137969979199897, 0.09900932848352215, 0.08354745615505767],
                "bias": -1.295024426834211
            },
            {
                "weights": [1.537619347411417, -0.2721741945189195, 0.05003115185140827, -0.14681874821117033, 0.004752837556310352, 0.024274545441548636, -0.20170609747103538, -0.06340339834947517, -0.03282652273804465, 0.1486676730201664, 0.03736430648439404, -0.0024347566989966294, -0.0768371508830747, 0.0998910506783403, -0.006752969585870756, 0.010881656317990247, 0.030180014543269712, -0.003789139673582212, -0.20488323973877864, -0.332126245061255, 0.020167672574508133, -0.00180471704579816, 0.021928371382927674, -0.005665571526590194, 0.019183042556719772, -0.011666659636062093, 0.03526656647436831, -0.26397937621878015, -0.15819470658177412, 0.08142279516521195, 0.10180735930113975, -0.08457257397675963, 0.025820368211715124, 0.13548638869038487, 0.04607433030589411, 0.02104324729140155, -0.02225929545660837, -0.02042181400280775, -0.2047627027308141],
                "bias": -0.9821810310016956
            },
            {
                "weights": [-0.3545020908409796, 0.3009421722593487, -0.06892841441466434, -0.06010297151621923, 0.00934605024387643, 0.047363319651305164, -0.22755522690234975, 0.33719950117167674, 0.045027235688763496, 0.14797418817402128, -0.00933455792724769, -0.23642813423200884, 0.03554291897270652, -0.08221293757819503, 0.019231917599421364, -0.10911681199162052, -0.02163657286001201, 0.04613346470629059, 0.31751819349003596, -0.7926976657959214, 0.0013189858225129236, -0.11131813096306574, -0.06058552582055835, -0.054617399628946676, 0.012023185776145535, 0.08796780465056203, -0.02784703550009151, 0.07716448580762532, 0.09916685300151552, 0.34273793116148754, -0.019448499191829605, 0.17771688719958909, -0.030958256370781024, 0.0683527226277094, 0.005296747634372113, 0.056316006277976616, -0.03964086213237527, -0.036175313638280124, -0.04572272996717333],
                "bias": -1.099479992793165
            },
            {
                "weights": [1.20956415569717, 0.09390508481763486, -0.035637840427508796, 0.08257640549434737, -0.0030389447615638276, 0.021470694125471326, -0.07186850642254478, -0.06762282569697525, 0.026052705509364133, -0.023389499374748574, 0.00654135016804421, 0.013237563692207546, -0.022486868603212726, 0.1800985464375076, 0.007856314114361638, 0.045165333284058876, 0.006397991075662392, -0.012671091746665704, 0.013296973408375417, -0.06112852738030411, 0.0007678033924386747, 0.010237602839026605, 0.015847812546252834, 0.08583071049909177, 0.04059080697968907, 0.011601098329055953, 0.022453413506283264, -0.0270708377598282, -0.029100409268416307, -0.20105912572995321, -0.013766972459128592, -0.16833418304965314, 0.03408127160319299, 0.005671184169338657, -0.00640918180257662, 0.1271480001332093, -0.004978319718912171, 0.004130012059033094, 0.001184394760508878],
                "bias": -1.4711441874607616
            },
            {
                "weights": [0.045322048402267244, -0.8595336997225483, -0.01980202231496727, 0.07962819779513997, 0.0015855374155979754, 0.07081835923140736, 0.08991842428912555, -0.054793897598052345, -0.12258734979183288, -0.030981325521291406, -0.10966822406709688, 0.025428627071597543, 0.07101183748585148, -0.22111993734394483, -0.018476340942130853, 0.04118946107174965, 0.06319343478740783, 0.004142271759533699, 0.018956589586795105, -0.0562595190307168, 0.030972960821312297, 0.0046573936531775564, -0.006300287697792246, 0.009409009231802967, 0.011433936757680327, 0.026149199810513616, 0.0069082170173364, -0.0060256005290151085, -0.043513570599351827, -0.08074094573097065, -0.010896539484736088, 0.07069810767242019, -0.04577718214843832, 0.037959814201151645, 0.007309128506442945, -0.07642678615708377, 0.043656296877199824, 0.02544906796417335, -0.0023724542024085252],
                "bias": 0.553492095725556
            },
            {
                "weights": [1.1004899159295558, -1.0126081310834423, -0.03605352105048699, -0.05186627317984818, -0.002974078760043396, 0.0021300950175222816, 0.110546039473416, -0.04243301021269706, 0.018784617867714598, 0.05318841070604694, -0.08392464028055542, -0.007973926979535044, 0.0015712451281102954, -0.22407445528703868, 0.020549170205994803, -0.11963633220497402, -0.0035320527207392473, -0.00041805439141198036, -0.02354587782721491, -0.07703338241131524, 0.03984816585913551, -0.026876082995754016, -0.019778800034877694, -0.015200462808308864, 0.012065343429212533, 0.05547760354025575, -0.0202696967292486, -0.04589421148723789, -0.034951821104234955, 0.07637892452164786, 1.0816625317043584, -0.03641444031419983, -0.014626018844031165, 0.05010890050170521, 0.0007446464596859613, -2.6857299159620647, -0.011202453175492887, -0.024950894823158487, 0.02836182192261729],
                "bias": -2.0954783688027088
            },
            {
                "weights": [-0.24458127760604215, -0.1508395123847982, 0.057188361818941005, -0.055726783910657045, -0.005112915308603089, -0.1029100237509763, 0.06149526748355879, -0.1048055646415837, 0.0728469834364192, -0.14522081254204583, 0.04678340165605034, -0.025714325104373794, 0.014518286073067387, -0.15731080033968778, 0.05095752912928071, 0.06282408508336332, -0.028850256291942558, -0.0019341025100002443, 0.21920060796020746, 0.0030355772328084156, 0.0033599323427127726, 0.013160990291355635, 0.03516523668731489, 0.019340123830052486, 0.0003895609668580545, -0.04255135801873198, 0.02797636041308027, -0.16905107560649907, -0.27024980978045066, 0.14544203725123525, -0.12821122538419796, -0.11227168701604942, -0.028536992464494083, -0.15841121149708662, 0.012399773334026887, 0.261000313012403, -0.016821708718170757, -0.03472046546226847, 0.16392771273096202],
                "bias": 0.4976279389884351
            },
            {
                "weights": [-0.03815674943702047, 0.014241018088097863, -0.016630951538594056, 0.029367968619645215, 0.0023748197005784536, 0.013670546743761228, 0.05362468741854458, 0.06512418493787149, 0.014099127245187, 0.11518803174220153, -0.10647360068419692, 0.17633218424692393, -0.0029301129162276596, -0.23901305347978355, -0.011543090846712139, 0.020229373010180567, -0.0018717022823761765, -0.000622907228862738, 0.05191779539469002, 0.03212804964060299, 0.00716768800208609, 0.01742045682501641, -0.01580937261659229, 0.025725390302834023, 0.0012162309494980767, 0.008893977925939827, -0.007479691317566045, -0.046894671255616784, -0.6272895620319401, -0.0829564006579169, -0.0023338093380178082, 0.05473126522505979, 0.006581658341036247, -0.060096289699831905, -0.003526498828426345, -0.027799590059704025, 0.28170703382499185, 0.001304631103203929, 0.03348565009362036],
                "bias": 0.15428015201117543
            },
            {
                "weights": [0.9410689746500851, -0.3528946126109703, -0.005952166086354999, 0.7274776193477621, 0.026603329445831363, -0.039354470065978434, 0.08648331604042633, -0.18875073790847285, -0.7859659622987215, -0.07727309040748168, -0.3113232870807705, 0.22480451987336858, -0.01585865944140957, -0.2063192677597578, -0.07097635358691665, -0.027544390432615213, -0.12342460258261972, 0.011612848182965542, -0.12632040626632157, 0.1321677883886273, 0.22724259249873924, 0.024073515802131577, -0.22567727015896122, 0.16711462646305483, -0.03967805641975011, 0.020798025096810637, 0.0014249518727757703, -0.019593396995775086, 0.07149341950274461, -0.009811531466962153, 0.12266971192300345, -0.10598980176815291, 0.2216300608000178, -0.11166118446033879, -0.11020731022500707, -0.0720470117870136, -0.27115849968212863, 0.18723654412784987, 0.06522276775031915],
                "bias": -0.9891487396297576
            },
            {
