{
    "acceptable_engine_tag": "0.4.7",
    "metadata": {
        "modelName": "E3SM2_trunknet",
        "modelAuthor": "Zhe Bai",
        "compilationDate": "2025-06-24 22:36:01.833490",
        "activationFunction": "gelu",
        "usingSkipConnections": false
    },
    "inputs_map": {
        "layer": "inputs",
        "intercept": [0.0, 0.0, 0.0, 0.0],
        "slope": [1.0, 1.0, 1.0, 1.0]
    },
    "outputs_map": {
        "layer": "outputs",
        "intercept": [0.0, 0.0, 0.0, 0.0, 0.0, 0.0, 0.0, 0.0, 0.0, 0.0, 0.0, 0.0, 0.0, 0.0, 0.0, 0.0, 0.0, 0.0, 0.0, 0.0],
        "slope": [1.0, 1.0, 1.0, 1.0, 1.0, 1.0, 1.0, 1.0, 1.0, 1.0, 1.0, 1.0, 1.0, 1.0, 1.0, 1.0, 1.0, 1.0, 1.0, 1.0]
    },
    "hidden_layers": [
        [
            {
                "weights": [-1.2132499285671521e-05, 0.00016128195104113144, -0.0001973270995782526, -6.282862716129039e-05],
                "bias": 0.00011097434962056138
            },
            {
                "weights": [0.1016566123112434, -0.25063319417423213, 0.04678112506973221, -0.058127331228562736],
                "bias": -0.1594497933957534
            },
            {
                "weights": [-8.182592978210851e-05, -0.0001137030608311725, 0.00037444963163315393, -0.00016287711251755953],
                "bias": 0.00011220662114704287
            },
            {
                "weights": [9.000170253107839e-05, 0.00011863480431002599, -0.00038390637184246366, 0.00016959769902324433],
                "bias": -0.00012469802365374643
            },
            {
                "weights": [-6.645364503889835e-05, 0.0003381476590314091, -0.00013137645430251672, -0.0003052399459315456],
                "bias": 0.00032711583293669694
            },
            {
                "weights": [-1.384776177207394e-05, -6.971786067851744e-05, -0.00010772470899496971, -7.661370323506998e-05],
                "bias": 0.00022260649415856338
            },
            {
                "weights": [-0.3001770562818213, 0.4365922041416016, -0.41113515267229384, -0.6012417133182166],
                "bias": -0.40958622439198245
            },
            {
                "weights": [-0.24619715375019963, -0.04825285808944431, 0.276450529102656, -0.3328488091415945],
                "bias": -0.09476028799919269
            },
            {
                "weights": [7.577312133179066e-05, 0.0001096421232179495, -4.5972816101421874e-05, 0.0001808772943016729],
                "bias": -5.6783793470039065e-05
            },
            {
                "weights": [-0.00015658793822157763, 1.894229333763528e-05, 0.000187554992807371, -0.0002802592777941188],
                "bias": 0.0002191415346863167
            },
            {
                "weights": [-0.4896908000976015, 0.2786204225837156, -0.09244081422953798, -0.8681100794043055],
                "bias": -0.7421561236613996
            },
            {
                "weights": [-0.9382806940995808, -1.1614005192883488, -0.05974852897463553, -0.08228681720529465],
                "bias": 0.32555785213088884
            },
            {
                "weights": [2.564668957342305e-05, 0.0002268711740582249, -0.0002722325380108266, -0.00021352495056021548],
                "bias": 0.0003375938293310797
            },
            {
                "weights": [-0.7476272697100825, -0.5178752709529441, 0.10790899075237848, 0.3598551761495888],
                "bias": -0.019329660314373484
            },
            {
                "weights": [-9.462641821035189e-05, 0.0015504634820904205, -0.0003319865349481576, -0.00013992234536928022],
                "bias": -2.4421213266848177e-05
            },
            {
                "weights": [-0.30957307053951516, 1.2021452094018363, -0.10091543198986931, -1.1536133415930911],
                "bias": -0.7315805432247892
            },
            {
                "weights": [-0.111594140898247, 0.9081493169026139, -0.4542895161198575, -0.47632091379979913],
                "bias": -0.31189831502322984
            },
            {
                "weights": [-0.03955649883481009, 0.036827582443360936, 0.03911027553828391, 0.05076817808562537],
                "bias": 0.034895708673127926
            },
            {
                "weights": [0.00010560628250890911, 0.0001288952448724161, -0.0004405179232528513, 0.00023799779844902786],
                "bias": -9.273395485502898e-05
            },
            {
                "weights": [-0.2745987313996454, 0.8465515689891872, -0.29943721948054763, 0.21068118376968167],
                "bias": -0.10691046021536689
            },
            {
                "weights": [7.032513233480457e-05, 6.632477109561478e-05, -0.00033748793063212326, 0.00020097043050291928],
                "bias": -7.488421164704025e-05
            },
            {
                "weights": [-0.4509014282757938, 0.01237165681847996, -0.7170774900669881, -0.07090668298512821],
                "bias": -0.2738642099203371
            },
            {
                "weights": [-3.6016486409743255e-05, 8.873167221619467e-05, 2.6985199237624615e-05, 6.648220214125898e-05],
                "bias": 6.0761512097703535e-06
            },
            {
                "weights": [0.3972955154775715, 0.013346733384456, -0.016521819201847428, -0.011792941815845599],
                "bias": -0.6648611861630834
            },
            {
                "weights": [-0.620347459862899, -0.9747667490756162, -0.06026510089320395, -0.77360731205307],
                "bias": 0.024837062258718033
            },
            {
                "weights": [-0.1483047349429542, -0.30107475287196356, 0.35990834161796953, 0.739295498906441],
                "bias": -0.29374400689127816
            },
            {
                "weights": [-4.5293691550137286e-05, -0.00033358666344529737, 0.0004178282403236868, 0.00016297236688429855],
                "bias": -0.0003771931936527683
            },
            {
                "weights": [-0.2550690352471266, -1.3441005545073679, -0.13795217480825603, -0.24159734667764962],
                "bias": -0.23823619923558023
            },
            {
                "weights": [-7.774174769528817e-05, -0.00014507306459539762, 0.00041288160780129354, -0.0001456722482894326],
                "bias": 0.00011914337119361115
            },
            {
                "weights": [-0.6426727109708316, 0.6420960487042536, -0.1997910260473447, -0.14901680149300742],
                "bias": -0.52608912425281
            },
            {
                "weights": [-7.253877449532119e-05, 1.3632594547775639e-05, -5.198554213849679e-05, -0.0001384843692218443],
                "bias": 0.00022722585348333417
            },
            {
                "weights": [-0.5548723507294018, -0.34787971190703326, 0.04795131702189365, 1.5185814736186638],
                "bias": 0.46012714843164787
            },
            {
                "weights": [0.1362394411499019, 0.16055343953508375, 0.6308160041382317, 0.04783762875349041],
                "bias": -0.7424762548065946
            },
            {
                "weights": [-0.9671893571723928, -0.03216244843370031, 0.04349927905580745, 0.003073153689640836],
                "bias": -0.2470551114617604
            },
            {
                "weights": [4.52562765262573e-05, -0.0002518675837248884, 0.00021244815191111965, 0.0002454328073318855],
                "bias": -0.0003817737694986818
            },
            {
                "weights": [-0.49227074934110865, 0.024835687302508007, 0.046607984486585465, -0.015916797426887088],
                "bias": 0.7016251691171793
            },
            {
                "weights": [-0.11094585959690917, 0.22540536750150966, 0.4053335441044047, 0.22665520681077705],
                "bias": -0.37477706942035477
            },
            {
                "weights": [0.00026071490216295545, 0.0005957778254410017, -0.0005072801523377893, -0.0003078925387722785],
                "bias": -0.00017119860784826598
            },
            {
                "weights": [-0.00021974572500574183, 0.0013264858631136993, -0.0002326309931967218, -0.0007894615670494391],
                "bias": -9.752911834315255e-08
            },
            {
                "weights": [0.00011899289332159086, -3.80722796911164e-05, -0.00019804966010434358, 0.00030597885086621016],
                "bias": -0.0001529974976017794
            },
            {
                "weights": [0.1039526697511553, -0.07286692603652689, -0.030561511886228535, 0.6935974297568107],
                "bias": -0.7875724994324841
            },
            {
                "weights": [-0.2223326121910886, 0.36209840853773956, 0.003408717450605972, -0.1301680998317451],
                "bias": 0.16153183187199213
            },
            {
                "weights": [0.00011062573172084087, -6.016036471642316e-05, -0.00011962083196867026, 0.0002830668617000522],
                "bias": -0.00018124456548340527
            },
            {
                "weights": [-7.519924786706873e-05, -0.00013382143962603456, 0.00044339197272862655, -0.00021514759022997734],
                "bias": 3.224202602679267e-05
            },
            {
                "weights": [-0.054273153870863323, -1.3036711280650572, 0.42700991775151026, -1.7262105248786985],
                "bias": -0.36116745999938754
            },
            {
                "weights": [0.00015011669227279925, 8.517061307090414e-05, -0.0003677077512047944, 0.00024164053941747268],
                "bias": -0.00017192324621711344
            },
            {
                "weights": [-0.49833491059201473, -0.2780864405029455, -0.10350895825837564, -1.6124081731724935],
                "bias": 1.0926031450519096
            },
            {
                "weights": [-0.21648445687048667, -1.6050813213748478, -0.5083914826147019, 0.18955116568001626],
                "bias": -0.21878900678883859
            },
            {
                "weights": [-0.038512262200623704, 0.43713400906835337, -0.04655432724717837, 0.760768651974094],
                "bias": -0.8582118044888577
            },
            {
                "weights": [0.0005321257140893938, -0.001828603773748122, 4.140018857620079e-05, 0.0013034175069755421],
                "bias": 0.00025238887239630026
            },
            {
                "weights": [0.00044136417157113536, -0.0021700752571567534, 3.0975393377532304e-05, 0.0012153673649307987],
                "bias": 0.00022781848789017712
            },
            {
                "weights": [-0.4917906590349261, 0.856759737140815, -0.7828229473988466, -0.25867309072481787],
                "bias": -0.6068629270202147
            },
            {
                "weights": [-0.1767625324976663, -0.54561932316368, -0.4784453595081659, -0.23281873726132302],
                "bias": -0.3467154109287156
            },
            {
                "weights": [-9.606422522910911e-06, 5.9671261685139634e-05, 0.0001850092544128604, 8.192530592483497e-05],
                "bias": -0.00025848137677612594
            },
            {
                "weights": [-0.38252676373968714, -0.6701998453141752, 0.4711613844208886, -0.23575795287608797],
                "bias": 0.030309771568301776
            },
            {
                "weights": [9.568721598195569e-05, 2.871133338589453e-06, -0.00027356158332385907, 0.00028680096833825304],
                "bias": -9.477586220541175e-05
            },
            {
                "weights": [-9.143182045094001e-05, -9.103773781256459e-05, 0.00034909234017306404, -0.0001938004144038914],
                "bias": 8.459984084808942e-05
            },
            {
                "weights": [8.843584427813246e-05, 0.0001371239901002729, -0.00039706625132839284, 0.0001572329395330065],
                "bias": -0.0001522588722538348
            },
            {
                "weights": [-0.19465893119620675, -0.8704663240479306, -0.5026774852097814, 0.4724398253895535],
                "bias": -0.7868256216930849
            },
            {
                "weights": [8.871877340048791e-05, 0.00010325200248245542, -0.0003832033779725198, 0.00020383719018334515],
                "bias": -0.00010200536003841236
            },
            {
                "weights": [-0.06181981812799731, 0.0009365060456402991, -0.0010423238178338394, -0.00046855324607633593],
                "bias": 0.10494561983660004
            },
            {
                "weights": [-0.32423637055116294, -0.5851604104428118, -0.0757750546446266, 0.40021617833828627],
                "bias": -0.2867055365428793
            },
            {
                "weights": [-0.05842016905229244, -0.5616603414811965, -0.6221225198740815, -0.7272999728268162],
                "bias": -0.002930233382201631
            },
            {
                "weights": [-0.00012563581754402743, -0.00010986465581918264, 0.00035486463790313763, -0.0001799522525527619],
                "bias": 0.00018430638882979165
            }
        ]
    ],
    "output_layer": [
        {
            "weights": [-0.0002410201316428649, -0.029289149382765278, -9.423779696040151e-06, 4.059857586087793e-06, 0.0005775620145845073, -3.5695488107837165e-05, 0.010869437730427275, 0.011507019230223995, -0.00031810897913710386, 0.00014034879809291185, -0.0282451595990309, -0.006396632563013145, 0.00046169104855268663, -0.005205148086891819, 0.0007595914418703935, 0.002627736993202051, -0.0009295742235156853, -0.010909940398052176, -8.011058176193712e-05, -0.00045200164805822844, -3.2150907994745264e-05, 0.011986655996040459, 3.693325419340904e-05, 0.028308399957251703, 0.0025921873851107195, 0.009525551136508777, -0.00016726085135212792, 0.00994990742111719, -3.353670541672896e-05, 0.014481269471711555, -5.025542891094336e-06, -0.003078352897177168, 0.005195645689125249, -0.010651355530018667, -0.0003995743360456596, 0.034557156442769695, -0.013614772598462452, 0.00019917529583920118, 0.0007585425734462976, -0.00018975288975838934, -0.008217163387253253, -0.01834202278946768, -0.00014793455502952834, 6.498280070968104e-05, 0.000609137179381675, -7.469531942968545e-05, -0.00375158891480121, 0.0012372383702172458, 0.0069310430444149635, -0.0009077144124926251, -0.0010833295669714026, -0.009623051371776893, -0.032167863105181334, 8.445485780522392e-06, -0.008267611128645106, -0.0001341611398525704, 6.409578770637637e-05, 3.4619250830869674e-05, 0.0016946795722090056, -2.932986705681976e-05, -0.004691444895736788, 0.0020833243264128066, 0.00665842829908095, 8.488541897803948e-07],
            "bias": -0.005374682025559794
        },
        {
            "weights": [-0.0009162047022909327, -0.01676173606207676, -0.0034331352650742953, 0.0034504758339701496, -0.0005184783335214045, -0.002492783122206418, -0.000661305648681481, -0.06895781109026226, 0.00033736294353027167, -0.0026583359314481924, -0.019077206131621297, -0.013123073971648214, -0.0004112976903330582, -0.05153065203055772, 0.0006108864541225326, 0.03388492124568523, -0.0326141603045319, -0.014383677717593243, 0.0032511032163809526, -0.0007493723455169, 0.0033470167180070514, -0.0019160124126359447, 0.0022563086663528, 0.04519624331928289, 0.007605793343800264, 0.014420435930372578, 0.0007281242252874542, 0.004244762231698583, -0.0035002058735407312, -0.06048278303719551, -0.0026547959408379173, -0.01349373841251139, -0.029616783419406184, -0.055410821082525694, 0.0008142155403171079, 0.12003291682606468, 0.014249939647946798, 0.003427221609154591, -0.0006050043304431707, 0.0026283869595558995, -0.03904193797998353, -0.02999844858929198, 0.0024716048848722745, -0.0033608120543789314, 0.0027952200722454394, 0.0031910110161676446, -0.0033769186461346814, -0.0027172452856029554, 0.0519783274625452, 0.0012346210624539654, 0.0006785278817558513, 0.027295375957058332, -0.014920099954779859, 0.0020713081325171912, 0.014288606165037307, 0.002829833622311859, -0.003386337547748674, 0.003435670642221413, -0.0007976572060522952, 0.0033186246293953362, -0.00209550307667677, 0.0782533546165498, 0.0025396150444500893, -0.0032785562977214458],
            "bias": -0.03764479920143355
        },
        {
            "weights": [-0.00013608874120440924, -0.1722167327049206, 0.00010676291166415543, -0.00013273286579756856, 0.0008492662047567046, -8.246246429980638e-05, 0.036218124181383676, 0.04534651921107222, -0.0005674880566889709, 0.0005151612424182135, -0.01859404010064376, -0.002800494137348162, 0.0005257582400268601, -0.0036498232903241466, 0.0005299289077584222, -0.0045515182372857545, -0.0024033544715648908, -0.002599014254511862, -0.0005109058222574913, 0.020073624942860756, -0.00022495695695065962, 0.005738034102687983, 5.459279703798407e-05, 0.09666499033859036, 0.0015641558480180172, 0.01149027205306915, -0.0007917731764747256, 0.004572825539223546, 5.5355066207735184e-05, 0.060869570475298417, -0.0001296622369223781, 0.0003097346651038072, 0.01788930799083079, 0.01175630955539171, -0.0006365836009849551, 0.0016139898180819298, -0.003285450076095208, 0.0003801511007011533, 0.0015568134771123169, -0.000531549491861198, -0.019407712726223127, -0.10189319478574049, -0.00031984129528903727, 0.0004995026738475655, 0.003262391144898742, -0.0005468270590126754, 0.004072540648282732, 0.003207713958289916, -0.02864588945274735, -0.0016514311333673249, -0.0019267841924890605, -0.026946892068831937, -0.02065355405503219, 8.962089657397596e-05, -0.008407088215643297, -0.00039588942135549543, 0.00038697613416926395, -3.0475514706481326e-05, -0.008077680490334232, -0.00024343291222620072, -0.003520757425203614, 0.011048347809339356, -0.0025821851909696137, 8.911475534884959e-05],
            "bias": 0.0021314169841510156
        },
        {
            "weights": [-0.00047655245654722433, 0.171180555188725, -0.0017989727298131765, 0.001661453864960963, -0.0011593574114032905, -0.00170966603705528, -0.03634363604071789, -0.04581714071662357, 0.0005657752048625115, -0.0012297845062501076, 0.019357544862475724, 0.0025589516199659807, -0.0019837063627312734, 0.0038251858267294306, -0.0014902282001832941, 0.004345630489588241, 0.0030857430798969924, -0.00080317592985233, 0.0012082689858818733, -0.021301953432999645, 0.001476230859788501, -0.005225029019218425, 0.0013779702213116089, -0.09648109827754775, -0.002156769636780109, -0.011286459852253673, 0.0017056667544017654, -0.004619721088972744, -0.0019195162549652356, -0.05951947913573935, -0.0017386825897361896, -0.00032522883161643424, -0.018068490340058235, -0.011129758058347245, 0.0013897793566314195, -0.002052289216265118, 0.00236196305557043, 0.00088232187083891, -0.002322347657049018, 0.0011405389220107828, 0.01936499960682783, 0.1028570032209291, 0.001407349688649817, -0.001229018107780147, -0.0031313923024160564, 0.001107631065850683, -0.0042073620939696394, -0.003439026840955166, 0.028925042173985106, 0.0023783863588577665, 0.0019437846562027155, 0.025653401306100852, 0.02045943651302764, 0.0017538987025198874, 0.008734128943034675, 0.0013450581489314348, -0.0012806913087216763, 0.0019021794904982533, 0.007841276661299114, 0.0015332989388057363, -0.0013590685708401733, -0.011793260219872575, 0.0034514200540153774, -0.001892211571252271],
            "bias": -0.002000539556701479
        },
        {
            "weights": [-0.00030853309322102784, -0.010311309717915215, -0.0023596490330555176, 0.002295507026135732, -0.0010567027407844503, -0.0014837190743711352, -0.018051055198403616, -0.05733454913120691, 0.0009369103556563893, -0.0019153906770893524, 0.007295563845379548, -0.0004677382540973607, -0.0010720145481837075, 0.0031915026060535846, -0.001931983902469924, 0.009584564614239306, -0.008422141667673584, -0.019630907622658005, 0.00235184980401733, 0.004658546277726201, 0.0021552428276419605, -0.00531954592251097, 0.0016644428809495541, 0.05394666314917301, 0.0014887400561398821, 0.00017079923631807548, 0.0012902052698845984, -0.006527669402660328, -0.0024760810508725256, -0.016122350815297923, -0.001588380707564859, -0.005288445017252616, 0.011974578748339506, -0.03791256352152435, 0.0011356764999152274, 0.030887345044762305, -0.007611316636925605, 0.003210641016469116, -0.0018709119424510435, 0.001727590021940276, 0.014978660495037825, 0.00664176715475975, 0.001667992114285883, -0.0024036717365228813, -1.2517231742535883e-05, 0.002224579095646529, 0.0019188158554151718, 0.0016511866469034583, -0.005392729641205713, 0.0019323776193576917, 0.0023174128620661663, 0.009854515110643962, 0.000484524987997586, 0.0013005461477004377, 0.018302577274238948, 0.0019304173688047567, -0.0022309615471786466, 0.002403270260946519, 0.008614454437703742, 0.0022505167663003332, -0.0026981711577056945, -0.006241219179700159, -0.00018519853496249617, -0.0023227172614398934],
            "bias": -0.006808483790124138
        },
        {
            "weights": [-0.00033036922729449026, 0.008131228826151731, 0.0008123327937253907, -0.0008207713902676268, 0.0001665982398459412, 0.00037038302947626855, -0.0067733156559744824, 0.00788493307650362, -9.029221292102873e-05, 0.0005516869264999192, 0.004992104226463175, -0.00954365858657946, -9.266459035526725e-05, -0.002863928460315361, -0.0007188307418429805, -0.006748610563239654, 0.011877581408196426, 0.04602914330682991, -0.0007826403438306809, -0.01549945075153768, -0.0007347051857657708, 0.004344852430757993, -6.11149893655922e-05, -0.02189061185308665, 0.004230730368801287, -0.0012191049085427182, 0.0005318211759448079, 0.0061481937032533615, 0.0008740696943449049, -0.018262842793850136, 0.0003808332557073702, 0.006158099964613147, -0.0001719205398302838, -0.00946025325316319, -5.566639580023596e-05, -0.017683033156219996, -0.009405079049151796, -0.0002713675076842235, -0.0006490679821859554, -0.0005732069070723722, -0.018488509005130674, 0.017996435168305767, -0.0005430419888309182, 0.0007262061247464851, -0.0008677910192127504, -0.0007135463221107459, 0.0010579149624147489, -0.000506983405787153, 0.007917329964950814, 0.00022477800551084468, 0.0005223374493112792, 0.00269063009114131, -2.269531009431202e-05, -0.000291602057744371, -0.00193204959720177, -0.0006759011101055829, 0.0006426403553862884, -0.0009083352897830688, -0.0010537094382282641, -0.000796604048198855, -0.009338759330297788, 0.0014931513198342006, -0.0023576961564260764, 0.0008357220868847853],
            "bias": 0.0024165830587206337
        },
        {
            "weights": [-0.000448242659953813, 0.026071039314459123, 0.000631279285490865, -0.0006446711956053254, 0.00025599360820807926, -6.854696570745113e-05, 0.04545147229674748, 0.06461397076368941, -0.0008429777826088328, 0.0007864296232396184, -0.007945605274943661, 0.00538373689494244, -1.294537619817722e-05, 0.004889811575063232, -0.0003492642315346601, -0.004665664329860949, -0.0094263289513225, -0.020796708862974946, -0.0009245681698178608, 0.016054065932146564, -0.0006343608332540434, 0.012190155279490062, -0.00021015804538831193, -0.07492522415733271, -0.03972518633910481, -0.01020685850105025, 0.0004818394516919803, 0.04664356234264241, 0.0006376525705926315, -0.0062342601762987275, 0.0001025709430348632, 0.019831678516526324, 0.0007203167590862044, -0.04797992297664236, -6.528865892818459e-05, -0.010910127311486733, -0.0187895917648343, -0.0004636311157592891, 0.0004248215598959177, -0.0007982124187827731, -0.05158128387054848, 0.015260739490536858, -0.0006804489771141971, 0.000854166304020994, -0.005084576798199323, -0.0008606590307036451, 0.007963636312078127, 0.002805814318584416, -0.02649711776006765, -0.0011650996596735456, -0.0006971650039523005, -0.024908531843545634, -0.006651375968242809, 8.801038770481855e-05, -0.009327414121931776, -0.0008499140920045009, 0.0006603821938795546, -0.0006429864005062545, -0.002149116708987992, -0.0007486437136194213, 0.008853878071503321, -0.054366406372613106, -0.008918852778936469, 0.0007173613335934319],
            "bias": -0.01304668576031009
        },
        {
            "weights": [-0.00010495065284723611, -0.05132587834814561, -0.00031750252228471607, 0.00031309101523363205, -0.0004917727145488207, -0.00038267483969580015, 0.003200926171896913, -0.00438418309743307, -0.00026463673125447446, -0.0002834534458014416, 0.0004193416087044082, -0.0023673463268564098, -0.00037767133102960536, 0.007244775971804239, -0.0002972031965228976, 0.006863768603897523, -0.01050512454406397, -0.015994970571529467, 0.000133405430206962, 0.011237215063901853, 0.000365591340386672, -0.010041113565917378, -7.051579169601345e-05, 0.019361829229811542, -0.00359721065301627, 0.0019424360335741299, 0.0007322137487818702, 0.009009939994626614, -0.00029457124996187654, 0.0015024089158264366, -0.0005026746595381428, -0.0039892751724323735, 0.010850099769823927, -0.039819041790289986, 0.0005337784843004038, 0.01657811895928865, -0.012352426791316692, -0.00044951825548561713, -0.00038791461821979307, 0.00027711492403738206, 0.0058110873169946045, -0.03702447021500179, 0.00034457483388267276, -0.00013043925385431942, 5.917400565244378e-05, 0.0002031213533208207, -4.962932718909019e-07, -0.0043861268439632254, -0.006051870908828367, 0.00013990908494582207, 0.00033681744233389434, 0.002231141747028115, -0.002606229895570055, 0.0003736912193578162, 0.001967583396938806, 0.00028424838351245884, -0.00021637726417683348, 0.0003256755419999197, 0.007027832757519262, 0.0002576390109588083, -0.0015339464025068419, 0.003391466661363697, 0.0005851170792965736, -0.0002550162691627495],
            "bias": 0.0018576757331673667
        },
        {
            "weights": [-0.00010947808833686022, 0.05176139777350699, -0.0012320305257262007, 0.001196712377570463, -0.0011739628052331674, -0.0012104128374683422, -0.001411000331973154, 0.0037816840834596958, 1.837818055956915e-05, -0.0009883390189378803, -0.0005946199958922813, 0.0020584205198871915, -0.0010607314627643807, -0.00866451963079351, -0.0010632983063331475, -0.0066966578208164035, 0.010820192823700805, 0.018294478944290014, 0.0009222464903311324, -0.011361892373278582, 0.0011813278776113855, 0.01042041103541089, 0.00043150455298745436, -0.018756426680692485, 0.004821803164241676, -0.0019096016494824673, 0.001060081700978998, -0.009488005586371416, -0.0012579852824468572, -0.0012162387575564563, -0.001273935158787512, 0.005230821770511058, -0.010033696319836527, 0.03896833324308042, 0.0011755966667149206, -0.01698493703769449, 0.012259635442725297, -3.179311953741995e-05, -0.0009612493352577845, 0.0009693724837913489, -0.007293564114363714, 0.03526836224009512, 0.001069140641666025, -0.0008993168883210817, -0.00021471741288988316, 0.0009508855939982052, -0.00019172973147356024, 0.004018982266966084, 0.00571221646307069, 0.0009030064673763924, 0.0011117427444578573, -0.0022763534985264545, 0.002526308506140569, 0.0011606711703518217, -0.001760146722367836, 0.001035893159293456, -0.0009836550229380635, 0.0013005067975491377, -0.008962511559779196, 0.0010980990895992806, 0.0013291150580198713, -0.0036677987646406523, -0.0006305560491972505, -0.0011911055638585955],
            "bias": -0.001624783468642167
        },
        {
            "weights": [-0.0002627187809018473, -0.05173367285244636, -0.00044375885931667445, 0.00042461829751032267, 0.0004852353797529846, 0.0002401798984280127, 0.05354541601151963, 0.04906784019945907, -0.0002611035829635451, -2.1762279474665913e-05, -0.028963558761766418, 0.008036055901345263, 0.0004973305010177031, 0.019495427492828836, -0.00022386228823826167, -0.0020200371543234764, 0.00829910411414247, -0.011974830263685258, 0.0002678502880067334, 0.04034483485187154, 0.0003583224494485603, -0.01900678270378928, -0.00013661582315214107, 0.10633985056697845, 0.004134936859488325, 0.002568361511884109, -0.00017657361072518754, -0.014252696465506259, -0.0004894817254506246, 0.052817174655647114, -4.7330229886314175e-06, -0.0027912206214004867, 0.03900809189439374, -0.01390211110270896, -0.0005117344675396042, -0.009574444692509777, -0.015597297847183472, 0.0018117029964661168, -0.0011987753075220987, -6.780035732669389e-05, 0.0006335974207023773, -0.05055620731997994, -7.943380989731026e-05, -0.00032940844807458227, -0.002076309127412872, 0.0002484250904160847, -0.0007315585429596428, 0.0038762407277328765, -0.019108158981294674, 0.002574066295003599, 0.0022107970502373473, -0.036570902178099454, 0.017760990459677994, -0.0004567115915773601, -0.0027864497538520744, 9.73716417368492e-05, -0.0002824401118888463, 0.00044997391917196824, 0.0005209163904015438, 0.0003351645383986149, -0.00413524639527215, -0.02719225128384945, -0.0019369415093540966, -0.0003732991924528373],
            "bias": 0.010742320535159906
        },
        {
            "weights": [0.0002648450143574708, -0.0012717335551665403, 0.0003636264989385915, -0.0003600432725675435, -0.0004967690604408629, 0.00013174794264408303, -0.00543601104306502, -0.018199888266882423, 0.0002508507920549727, 0.00016206861602597277, -0.024853578728536146, 0.0018971884348482032, -0.0005711275840997711, 0.009846366926593445, -4.118256085320185e-05, 0.003403839178523504, 0.007700216554293756, 0.01541362805868916, -0.000322537767939745, -0.0049803790119636255, -0.0003174661001851342, -0.006674309212653157, -0.0001617199634252995, -0.030634834814560252, 0.006626197517220564, -0.005764524918476832, 0.0003584100664866365, -0.010897085091811422, 0.0003897885321775763, 0.030123346738988557, 0.00016125884184037603, -0.005057374836813843, 0.007367019771370807, -0.03823909312383429, 0.00037910202047416867, -0.009508337768220422, -0.0031494260645779626, -0.0005427908148612409, -0.0007348864017010091, -0.00011527334673047016, 0.013111180735889112, -0.01877106284150543, -0.00011618235938429495, 0.00033474289154052854, 0.0003020517096440963, -0.0002902040977918457, -0.0008980799474285012, -0.007726395034157791, 0.011206279319024175, 0.0007719018812741882, 0.0005029674974510519, -0.0008669758769744407, 0.02012645855682901, -5.2639221353994754e-05, 0.00910302317826226, -0.0002104695541849352, 0.0002930286224163685, -0.00038280210157439246, 0.005843470736319885, -0.00033726482608863146, 0.0020391962118979172, 0.01508755823902081, -0.004101995201559917, 0.0003559518958328012],
            "bias": 0.007878593674341844
        },
        {
            "weights": [0.0005756647627162643, 0.02998337390458273, -0.0011494147900855214, 0.0011586317041115785, -7.690541014500756e-06, -0.0005938715230486774, -0.009421454870863565, -0.02238367321159743, 0.0007750830667142841, -0.0009007280000337466, -0.0063667078770718285, -0.013702321405831936, 0.00016046525073126194, -0.028574094989582296, 0.0004350504075235956, 0.009380738627950618, -0.003222089021451768, -0.042190623006097265, 0.00131244286474475, -0.009412231145230677, 0.001064380484247718, 0.0063404767907059975, 0.0007017779992095475, -0.021105120677930553, 0.004367492467695658, -0.012303201861775076, -0.0007338522477940301, 0.0009056327464020806, -0.0012158471491054694, -0.00545287531654835, -0.0004705653596108966, -0.007174336702899456, -0.015062092046260791, 0.001987058947654424, -0.00011801551475624895, 0.010110588292466464, 0.017720102715409893, 0.0007029624778293989, 0.0005420054388841941, 0.0009145532705919117, 0.005577186064316994, -0.006663360836758403, 0.0007784585925835961, -0.001306655797755752, -0.0015931039824554772, 0.001208130867758788, -0.0016029827266111547, -0.005908403864524512, 0.03238848771246362, -0.00017078912764047395, -0.0003894684169787, 0.003155513660299949, 0.0027010438925711817, 0.00044665649064166735, 0.010384626864730047, 0.001032467178053361, -0.0011416694844314048, 0.00119116672304548, -0.011102822011462348, 0.00119369386660015, -0.00439566654252514, 0.07716541598797486, 0.0011279753708434298, -0.0011550703467245941],
            "bias": 0.020085417171893858
        },
        {
            "weights": [0.0001051920596525005, 0.0026671246877619536, -0.0002327595914482454, 0.0001614919404773066, -0.0004769613828350025, -5.037389960227962e-05, 0.01272849105171157, -0.005062645366386011, 0.000365132439444551, -0.00023250413202697098, -0.004074498178075732, 0.008826019465462452, -0.0007751072953440157, 0.012501172579085007, -0.002183959911396532, 0.0031542393128562974, -0.013098601501149951, -0.025848445686913676, -9.99464863168959e-05, 0.01211746278817145, 0.00015816375385754625, 0.00905032101083923, 0.00034125381664077054, 0.015708481520288142, -0.005305526957443689, 0.002397280336442748, 0.0009796878563147473, 0.0029440331568642733, -0.00025344437653643085, -0.010095963555658047, -3.3036583339313486e-05, 0.00547708299396128, -0.005123222814793984, 0.02560594179674383, 0.00042947534367158627, -0.03124498676825259, 0.021199759212528934, -0.0007609341135680111, -0.0015999768357925547, -4.433199843656896e-06, 0.002457980913653322, 0.013934275093768048, 0.00025287518766627624, 6.350437745672246e-05, 0.00402361175567567, 8.410515275064976e-05, 0.0009409829183234416, -0.002966474798100872, -0.023750635811031057, 0.0017150976900102742, 0.0016812684827636683, -0.00017501462373091992, -0.010142720034817712, 0.00011024927578779072, -0.004473737063249948, 0.0001828432874099731, 0.00025366377147278805, 0.00027936342751030003, 0.008841237336091393, 0.00017405278937909145, 0.0012820933616244949, -0.044765217650967935, -0.003071772715316916, -0.00021425930834909613],
            "bias": 0.0029253842637254838
        },
        {
            "weights": [-0.00028900064286316556, -0.0014866710121815981, -0.0006044337640088776, 0.0005807352321889939, 0.0006021093183126142, 0.00043271082401873833, -0.013265117722591098, 0.004282516482415071, -0.00017544759284154836, -0.00035332478428867363, 0.004344233715239648, -0.00882743612066927, 0.0006924370953713024, -0.012409295847395266, 0.00035047879052112554, -0.003810917185023202, 0.013281325249361313, 0.024287397610921933, 0.00034085761320858343, -0.011448096833837903, 0.0005891016165996426, -0.008362737713680013, 0.00045936308132226355, -0.017927388560943395, 0.0055582305984616, -0.002199740268454386, -0.00022946336712509777, -0.0018244948573240638, -0.0006333483624757995, 0.010063530478704829, -3.334490187764228e-05, -0.0057940716217102645, 0.0043967220283992175, -0.027380389179656916, -0.00047966098065436714, 0.03219748838775212, -0.020665829549469238, 0.0017847488729906837, 0.0006372142177038671, 8.473873664674726e-05, -0.0015157341451751184, -0.01424741397215938, 0.00024130485336992637, -0.00043676093584961656, -0.0038862830436788695, 0.0004943812518099935, -0.0007834999361253327, 0.0023067577606912036, 0.02601627392583478, -0.00021236913659230378, -0.0005411630477896272, -0.0006306439286686701, 0.011541746182922601, -0.0005123874138766538, 0.0050392198101623705, 0.0003730164708294275, -0.0001882624389798464, 0.0006141204942476732, -0.007302083690917174, 0.0005536365758846821, -0.0009153784539990208, 0.04425064424416901, 0.0027486736148214556, -0.00046768253417475193],
            "bias": -0.0024608139507273467
        },
        {
            "weights": [-0.00037443741859839643, -0.018570928469156346, -0.0005372110091460582, 0.0005294339087023574, -0.00048326730351281607, -6.249511360802265e-05, 0.0233996607034578, 0.014277104913758642, 1.688718032454682e-05, -0.00043443986008903353, -0.006371501826655232, -0.0010812299622780673, -0.00039279602924634704, 0.02689572058643669, -0.0018409869477329784, -0.003468188639808571, -0.00397770256765352, -0.0110610732014204, 0.0005708909495080669, 0.008236096862385979, 0.000499556508239209, 0.0044702791239673145, -3.462256096143683e-05, -0.03202696678851105, 0.003470692026037644, 0.003131067269768475, 0.000511367248976247, 6.858615439506025e-05, -0.0005713643894893229, 0.012535238139218616, -0.0001854933907246851, 0.0028894835524391604, -0.004234281834012254, -0.01278099955137141, 0.00036102245771427063, -0.04357570933393368, 0.006021489015466579, 5.892762305623607e-05, -0.002206772137101731, 0.00044199617196698964, -0.0011891936484732728, -0.003943334717429438, 0.00042619904252788057, -0.0005358596720708984, 0.002803108042064687, 0.0005082589546425446, -0.0017108374168396626, 0.003314001910053244, -0.021228143470211337, 0.003214809321452676, 0.0032953322136144085, -0.016956742133338733, -0.009159255169825308, 2.290617835289202e-05, -0.0078301391384905, 0.0005252569804435678, -0.0004236976514480553, 0.0005871553111977633, 0.0038524108976178304, 0.000544482323454655, -0.0016433704329781179, -0.03898442826553261, -0.0036858312154335513, -0.0005546122250443681],
            "bias": 0.014752184577828491
        },
        {
            "weights": [-9.495139821353529e-05, 0.02379660326094271, -0.0019264832323244291, 0.0019525524303570833, -0.00015636224804082055, -0.0008942025096557256, 0.017295149504615165, 0.029577608994477568, 0.0005721983512241843, -0.0015506102115252348, 0.02015516424333343, 0.01887384011247926, 0.00015692291611052017, 0.008762847785276247, 0.00026535170009213546, -0.006079906806062014, 0.009228959155534941, -0.0903909227814332, 0.0020082521748457298, 0.006510715092630606, 0.0018608473611823615, 0.005749211578320894, 0.001186078416164626, 0.19997824527568336, -0.0012476497074294175, 0.009301182928723948, -0.00021674274419872252, -0.007038370804904131, -0.001990336670519992, -0.01915228701702654, -0.001131624304737545, 0.00250445628322844, 0.018904478433553144, -0.08676083923418748, 0.000166226917656967, 0.07338757064312634, -0.02243026249482043, 0.002655147024689883, -0.00039788404412684946, 0.0015113518451010763, -0.003760596948417233, -0.006804043228523733, 0.001362321068556621, -0.0020236056545304493, 0.005053503035607236, 0.0019376752751794014, -0.009597742263194825, -0.00177529377882121, -0.008294343148072416, 0.0012495704482358716, 0.0011208928970815218, -0.014731499502955154, 0.011693494328997824, 0.0006486041761156483, -0.014629166303438416, 0.0016631514400329312, -0.0019019632020684997, 0.0019629703428978903, 0.006592090955490148, 0.0019274810984661217, -0.003663369973322707, -0.04232169696166074, -0.001153304061559539, -0.0018839984366839247],
            "bias": -0.0004975185677310301
        },
        {
            "weights": [-0.00010776678586055655, 0.19745162222330967, -0.0005498967458658631, 0.0005154452749581006, -0.00024251546848629983, -0.0006135428765443638, -0.4170260242567372, -0.27697667970917383, 0.00012479767711630316, -0.0005351554229267267, 0.42619622940591184, -0.1420304229437269, -0.00013852974079007978, -0.31900012349054496, 8.322083412458828e-05, -0.02685750172128322, 0.11081313455399659, -0.06377945388808058, 0.0005222938208052056, -0.3598762636371326, 0.0005154743999157439, -0.06251619691497276, 0.0003907507967735304, 0.29601625230464323, 0.059319805980165737, -0.005583571537556267, 0.00016497788176051892, -0.11261292274191835, -0.0005480875523767991, -0.3980701279820375, -0.0005834161443466253, -0.0037600124414012576, 0.10990210497830458, 0.3005026621329846, 0.00026822346060575536, 0.18152714432390604, -0.2910813910561351, 0.00014376665203332843, -0.00010296200967527026, 0.0005147191098085011, -0.17941548706798824, 0.28490176174469656, 0.0004962941327204433, -0.0005431550118588164, -0.03272781823928445, 0.0005313333326380735, 0.025600438898567134, 0.03250836005093528, 0.5241223875646762, 0.00016035572121068145, 0.00020772149451733622, 0.29136131341183624, 0.1851735108798005, 0.0005493652058852027, 0.16756828940318866, 0.0005067552312627294, -0.0005692205112648647, 0.0005199376886434046, -0.10476012163593153, 0.0005151079019760092, -0.001040248463236368, 0.40982263762105686, -0.011041188123003696, -0.0005605411559434172],
            "bias": 0.004918443769439674
        },
        {
            "weights": [-0.0006466612177017635, -0.022117460464778846, -0.0019641581130082457, 0.001975009262506623, -0.0012042213777249903, -0.0013651280725550596, -0.023569437806257153, -0.0016404701681966855, 0.0001818637939482962, -0.0016224450494627739, -0.03243928387871835, 0.0012044553981184617, -0.0012012738793209926, 0.014020917967433313, -0.0012394331554595394, 0.04429908707585103, -0.026936602897225263, -0.07956916520968607, 0.0019207838785256354, 0.020411556384162793, 0.0019268320964714192, 0.03072540418309436, 0.001084185665991428, 0.056055082012669864, 0.015396759949075139, 0.033120629813830696, 0.001434870214488201, 0.005129252825528322, -0.0020059545370845265, -0.04305894979317002, -0.001497355021120355, -0.021318922437680618, -0.04187633353224141, -0.24096286542626158, 0.0012656886358572567, 0.15196543955213013, 0.02134543561621959, 0.0011575781623696516, -0.0018641165104288037, 0.0016617044101261953, 0.021338190679199218, -0.034226696081142476, 0.0015418981679953194, -0.001964034202548661, 0.004562494640447035, 0.0018752961286418203, -0.016265484858724283, -0.00868176784185745, -0.0011164876569969891, 0.001808148477061607, 0.0019429501452373004, 0.004384803509362338, -0.040125834930964235, 0.0012161392133951637, -0.010673955704892442, 0.0017086090389326373, -0.0019670625170855696, 0.0019677878042497223, 0.01818863264858431, 0.0019210530825900106, -0.005139170805047109, 0.0085922450187259, 0.01676908506523937, -0.0018895938164669164],
            "bias": -0.04237215909128449
        },
        {
            "weights": [9.108294710807843e-05, -0.009798196918718307, 0.0016659660309667943, -0.001609420443401893, -7.607995363803884e-05, 0.0012609202940821762, -0.025364352123012385, -0.034842804586725055, -0.000500249914526582, 0.0011799871699143638, 0.002089783266348609, 0.008540827473574092, 0.00010021170427977883, -0.036192645127789386, -0.0015216574658508172, 0.010629982523579056, -0.010222485328410923, 0.03723731663616502, -0.0014925064759885192, -0.023484192825676903, -0.001449790828622847, -0.008920156211751833, -0.0009626062940863216, -0.001852531057848592, -0.01149675901041916, 0.03423035540497179, -0.0002782337887381294, -0.014202245924048531, 0.0017674065147153294, 0.033595332931290973, 0.001192791293423046, -0.023220246276079326, 0.03653565131922116, 0.1505099442894741, -0.00016647237048433508, -0.02361847292538782, -0.08894371897795736, -0.0023238357594153975, -0.0005203208747824446, -0.00100608036050845, 0.012614065140229834, 0.011989712218985071, -0.0010194371307387998, 0.0015042911308299082, 0.011727104761371577, -0.0014201323009382808, -0.015391259906496434, -0.0028456337321250682, 0.05599815122964004, 0.0005386839945927945, 0.001212965627451312, 0.0033541989709995504, -0.010463006303159264, -0.0010801444866302742, 0.0032996307300458914, -0.0012119705796507449, 0.001406995079412129, -0.001748765098614085, 0.007097903986069063, -0.0015210061837912286, 0.003930908981958338, 0.042378484318749125, 0.025991870930038, 0.0016740175352505668],
            "bias": 0.021782097951595
        },
        {
            "weights": [-0.0004277819718833555, 0.1538005421686971, -0.0009459573572546999, 0.0009326713816733054, -0.0009642508133763549, -0.0008083981727388522, 0.15215535559027568, -0.06376656774850101, 3.6478927705542397e-05, -0.0007794634562047213, 0.2677405669462742, -0.6876223310788357, -0.0009217227301821788, 0.1548893255174011, -0.0022424828732570674, -0.700188332392436, 0.7501229581869672, -0.02224882921209485, 0.000759256797100838, -0.07009825920426041, 0.0008891239590092277, -0.3444992466749426, 0.0005961247884450976, 0.08576178773869861, 0.7542681118996857, -0.8841307089795171, 0.001175816299884746, -0.6541755411570449, -0.0009714555357159736, 0.273623204267674, -0.0009163742878008864, 0.6250130337729064, 0.8833291171220171, 0.051741289923155125, 0.0009641061770127214, -0.5611005873033444, 0.16371956789983902, 0.0012169944224572902, -0.0016986184997401473, 0.0007151992148790442, -0.6999980726502941, -0.24205635551819107, 0.0007371867405582444, -0.0007760590252374255, -0.3947165527977658, 0.0008059338850801838, 0.5789744510243227, 0.6479097304897982, -0.17594348994273393, 0.0018494369346491325, 0.002434358927062127, -0.19881038031342482, 0.6184814515503118, 0.0007196199049708342, 0.42941799189558166, 0.000705929202695307, -0.0008988646908349627, 0.000963572433466652, -0.6457839831989677, 0.0008413679156571327, -0.0059480087290058005, 0.27644871921628955, -0.6166595214852504, -0.0008995396652420926],
            "bias": -0.34370840369619543
        }
    ]
}